tree
version=v3
num_class=3
num_tree_per_iteration=3
label_index=0
max_feature_idx=14
objective=multiclass num_class:3
feature_names=Column_0 Column_1 Column_2 Column_3 Column_4 Column_5 Column_6 Column_7 Column_8 Column_9 Column_10 Column_11 Column_12 Column_13 Column_14
feature_infos=[0.00016217994561884552:0.99915623664855957] [0.00030441765557043254:0.99714028835296631] [0.00019410207460168749:0.99886584281921387] [0.00046717276563867927:0.99452906847000122] [0.0013288775226101279:0.99239349365234375] [0.00097009248565882444:0.99369895458221436] [0.00025453121634200215:0.99899071455001831] [0.00046254062908701599:0.99798905849456787] [0.00019230415637139231:0.99749124050140381] [0.00013035425217822194:0.99887210130691528] [0.00046791561180725694:0.99801158905029297] [0.00032742935582064092:0.99796545505523682] [0.00016741955187171698:0.99935144186019897] [0.00021833430218975991:0.99829369783401489] [0.00015141096082516015:0.99864190816879272]
tree_sizes=1284 2096 1692 2121 2996 2488 1528 2001 2151 1861 1854 2022 1753 2105 1892 1151 2278 1583 1433 2113 1686 1696 2230 2103 1721 2621 1813 1416 2969 2607 4907 2331 2615 2180 1792 1935 1695 2331 2389 3006 2426 1689 2289 2089 1954 2474 2662 2158 2195 2204 1722 1790 2207 2927 1809 1732 1793 1699 2095 1586 2243 2675 1798 2390 4197 2438 2275 2799 2589 1801 4666 2247 2207 3333 2925 2050 4483 2152 2179 1988 1877 1982 1797 2464 2156 2950 1893 4635 2907 2338 2088 3226 2634 2544 1807 1587 1525 3457 2691 2056 2778 2317 2085 3566 2811 2495 3584 2241 3103 2919 2537 2653 2181 2747 3846 2927 3494 2607 3679 1783 1923 3009 2032 2937 2621 1893 2260 3054 2793 3711 2801 1864 3090 2978 2926 2433 3690 1939 3076 1710 3508 2373 4326 2732 2364 4425 2220 2321 3145 2087 3065 3731 2351 3396 2683 2540 2780 3331 2753 3639 3589 2898 3230 2825 2259 3416 3649 3613 3233 3301 1748 3137 3214 2730 2558 4034 2348 4140 3004 3342 3004 1590 1571 2849 3052 3717 3949 3258 3378 4505 3949 4128 2802 3683 1763 3317 3234 3855 3972 3105 3712 4237 3433 3035 4550 3376 3843 3430 2649 3308 4036 4859 3851 4099 4203 4055 3111 2689 4520 4266 4571 1418 4990 3813 3057 3876 3172 3493 4572 4153 3411 2701 2876 3665 3916 4043 4047 4220 4028 4106 4215 3666 3763 3759 4401 2953 3536 4114 2995 4690 3951 4526 4897 2403 3402 4776 3312 3897 4718 4173 2244 2777 5237 4746 4268 5053 2776 2807 4496 2512 4830 4335 3866 3144 3821 2804 2669 3645 3587 2830 3364 4321 4617 5122 2991 4737 4184 3808 3128 4944 3004 4980 4611 4598 2612 4128 2899 4856 4083 3905

Tree=0
num_leaves=11
num_cat=0
split_feature=6 6 6 6 6 6 1 4 4 1
split_gain=5807.81 341.933 179.985 28.3398 24.3133 14.1872 9.50773 3.26067 0.801241 0.956137
threshold=0.27075622975826269 0.8117712438106538 0.044258575886487968 0.9588870406150819 0.45307826995849615 0.16349852830171588 0.70265027880668651 0.56123939156532299 0.030370795167982582 0.62060943245887767
decision_type=2 2 2 2 2 2 2 2 2 2
left_child=2 4 -1 -3 7 -4 -6 8 -2 -10
right_child=1 3 5 -5 6 -7 -8 -9 9 -11
leaf_value=-0.8019660735316021 -0.76468502023277052 -0.73392651732530989 -0.78309279119921815 -0.7226534862762205 -0.7474763369371531 -0.7687961457499326 -0.76468502023277052 -0.76819273293213786 -0.75817604658658222 -0.76468502023277052
leaf_weight=2199.3418854773045 32.842709302902222 638.19355577230453 319.09677788615227 1425.2989412248135 474.72643446922302 148.91182968020439 14.555291622877119 35.455197542905807 123.90658509731293 20.526693314313889
leaf_count=5893 88 1710 855 3819 1272 399 39 95 332 55
internal_value=-0.764685 -0.732462 -0.79809 -0.725906 -0.752244 -0.77912 -0.748309 -0.762488 -0.760145 -0.759177
internal_weight=0 2765.51 2667.35 2063.49 702.013 468.009 489.282 212.731 177.276 144.433
internal_count=14557 7410 7147 5529 1881 1254 1311 570 475 387
is_linear=0
shrinkage=1


Tree=1
num_leaves=19
num_cat=0
split_feature=3 5 3 11 3 11 5 11 11 3 3 5 3 5 5 5 11 11
split_gain=1370.12 2562.66 124.653 99.9266 97.8553 53.0162 20.4968 18.8895 6.79199 4.6271 2.53699 2.16112 1.05584 0.794885 0.724208 0.403848 0.122833 0.125506
threshold=0.52865114808082592 0.41763597726821905 0.22305261343717578 0.92980802059173595 0.82523953914642345 0.14340510964393618 0.14175327122211459 0.13375244289636615 0.67174360156059276 0.93975511193275463 0.76669234037399303 0.73405396938323986 0.7413039803504945 0.95921534299850475 0.67476496100425731 0.50047224760055553 0.59367695450782787 0.27730189263820654
decision_type=2 2 2 2 2 2 2 2 2 2 2 2 2 2 2 2 2 2
left_child=1 2 5 7 10 -1 -4 -3 14 -6 12 -5 -2 -10 15 -9 17 -17
right_child=4 3 6 11 9 -7 -8 8 13 -11 -12 -13 -14 -15 -16 16 -18 -19
leaf_value=-1.2717762537442094 -1.3408605142793983 -1.3162128085734246 -1.3056490668714373 -1.3365135103040247 -1.3550768925675258 -1.3034644895339269 -1.3365135103040247 -1.3365135103040247 -1.343851226565991 -1.3621238374489211 -1.347100680429437 -1.357515142814401 -1.3365135103040247 -1.3365135103040247 -1.3335307780092533 -1.3365135103040247 -1.3365135103040247 -1.3402177516285851
leaf_weight=688.08371162414551 314.69369074702263 26.15183025598526 168.82459309697151 11.041883885860441 612.82455566525459 118.84553971886635 17.725129395723343 35.159682899713516 248.44238743185997 894.39259475469589 149.06543245911598 730.50779181718826 49.688477486371994 26.732982039451599 74.968580067157745 12.20418745279312 10.751307994127272 39.808897167444229
leaf_count=2368 1083 90 581 38 2109 409 61 121 855 3078 513 2514 171 92 258 42 37 137
internal_value=-1.33651 -1.31925 -1.28156 -1.35004 -1.35539 -1.27581 -1.30895 -1.33812 -1.34019 -1.35951 -1.34272 -1.35729 -1.34019 -1.34329 -1.33629 -1.33656 -1.33891 -1.33949
internal_weight=0 2209.25 993.479 1215.77 2020.66 806.929 186.55 474.22 448.068 1507.22 513.448 741.55 364.382 275.175 172.893 97.9241 62.7644 52.0131
internal_count=14557 7603 3419 4184 6954 2777 642 1632 1542 5187 1767 2552 1254 947 595 337 216 179
is_linear=0
shrinkage=1


Tree=2
num_leaves=15
num_cat=0
split_feature=14 14 14 14 1 0 1 14 0 0 14 1 14 14
split_gain=5208.21 368.341 198.797 39.1083 37.5858 29.2029 30.7632 15.5332 10.3202 7.30211 1.42586 0.609194 0.567682 0.417011
threshold=0.64220389723777782 0.064452946186065688 0.8988497555255891 0.27540740370750433 0.086675830185413374 0.36618754267692571 0.57679939270019542 0.016455418430268768 0.66635128855705272 0.12992305308580401 0.16696789860725406 0.063891328871250166 0.11571560055017473 0.1543400436639786
decision_type=2 2 2 2 2 2 2 2 2 2 2 2 2 2
left_child=1 7 5 9 -4 6 -2 -1 -5 10 12 -7 -3 -11
right_child=2 3 4 8 -6 11 -8 -9 -10 13 -12 -13 -14 -15
leaf_value=-1.3305627725147888 -1.2629368095388858 -1.3028385638220581 -1.2357279022404131 -1.2874139847989374 -1.2684051879050282 -1.2974535728354646 -1.3028385638220581 -1.3209690011470823 -1.3028385638220581 -1.314308773980629 -1.2986260935635157 -1.3028385638220581 -1.3074450809972034 -1.3049795357791123
leaf_weight=2172.4160966873169 170.10035848617554 57.590697288513184 819.33156967163086 168.91292142868042 94.401246070861816 47.200623035430908 27.311052322387695 406.10347366333008 67.980771541595459 116.07197237014771 51.059793472290039 9.2026371955871564 37.107408046722412 76.589690208435059
leaf_count=7318 573 194 2760 569 318 159 92 1368 229 391 172 31 125 258
internal_value=-1.30284 -1.32407 -1.24573 -1.30143 -1.23855 -1.27358 -1.26777 -1.32919 -1.29146 -1.30792 -1.30284 -1.29892 -1.30478 -1.31185
internal_weight=0 3153.83 1167.55 575.313 913.733 253.815 197.411 2578.52 236.894 338.42 145.758 56.4033 94.6981 192.662
internal_count=14557 10624 3933 1938 3078 855 665 8686 798 1140 491 190 319 649
is_linear=0
shrinkage=1


Tree=3
num_leaves=20
num_cat=0
split_feature=5 7 7 5 7 5 5 7 13 7 13 7 5 5 7 7 5 5 5
split_gain=2175.28 2929.47 161.368 140.44 81.7429 72.9526 63.8173 49.3791 9.83997 8.52624 5.64721 4.78989 1.90338 1.82775 0.820809 0.280914 0.104579 0.352672 0.0770903
threshold=0.45648451149463659 0.4509731531143189 0.79811176657676708 0.080547582358121886 0.095093838870525374 0.75182604789733898 0.058479862287640579 0.14249774813652041 0.66353958845138561 0.92148205637931835 0.57389047741889965 0.028976930305361751 0.38033911585807806 0.16616870462894442 0.75020092725753795 0.6766614317893983 0.025169424712657932 0.0069095476064831027 0.0108216037042439
decision_type=2 2 2 2 2 2 2 2 2 2 2 2 2 2 2 2 2 2 2
left_child=1 3 6 4 -1 -2 10 11 -6 -4 14 -5 -13 -9 -3 16 17 -12 -17
right_child=5 2 9 7 8 -7 -8 13 -10 -11 15 12 -14 -15 -16 18 -18 -19 -20
leaf_value=0.039399246053087367 -0.015261597598076772 0.0088285052568931807 -0.021218734040211407 0.021797711734167797 0.022516773338866081 -0.035512503340553433 -0.025626347079828044 0 0 -0.033516974903390229 0 0.008959771942293266 0 -0.01240554903050837 0 -0.003374625288341935 0 0.0033528104645634445 0
leaf_weight=1718.0742682814598 275.91824543476105 116.91636976599693 243.33292299509048 288.28785282373428 370.31399038434029 1249.0567764341831 96.292811572551727 16.043603450059891 25.034397065639496 788.65659457445145 12.701607316732405 66.896737396717072 13.798514395952223 40.970655709505081 13.436118125915526 23.886355340480804 11.567010074853895 32.870282232761383 24.618355840444565
leaf_count=4588 741 313 654 771 990 3363 259 43 67 2123 34 179 37 110 36 64 31 88 66
internal_value=0 0.0125779 -0.0248018 0.0327548 0.0361926 -0.0320825 -0.00466164 0.0148691 0.0212351 -0.0310031 0.00363355 0.0192757 0.00679676 -0.00936705 0.00802508 -0.000186373 0 0.00140137 -0.00225214
internal_weight=0 3903.7 1364.28 2539.42 2113.42 1524.98 332.289 425.997 395.348 1031.99 235.996 368.983 80.6953 57.0143 130.352 105.644 57.1389 45.5719 48.5047
internal_count=14557 10453 3668 6785 5645 4104 891 1140 1057 2777 632 987 216 153 349 283 153 122 130
is_linear=0
shrinkage=0.03178


Tree=4
num_leaves=29
num_cat=0
split_feature=12 14 12 2 12 12 14 2 2 14 2 12 14 12 12 2 2 2 2 12 2 2 14 2 2 12 2 14
split_gain=1331.73 2276.16 277.574 110.802 138.659 46.1016 30.6152 28.1771 14.9895 10.8093 9.80529 6.95115 6.73464 11.0483 5.8069 5.70216 3.73561 3.43921 2.78306 2.56184 2.00623 1.90263 0.873914 0.769079 0.65494 0.644892 0.589363 0.361477
threshold=0.6534252166748048 0.31965398788452154 0.18426323682069781 0.89402171969413768 0.060967441648244865 0.93728742003440868 0.88096964359283458 0.8142773211002351 0.015177705790847542 0.70892235636711132 0.040526466444134719 0.41772904992103582 0.16696789860725406 0.065645266324281706 0.84831067919731151 0.44559830427169805 0.8521745800971986 0.08516246080398561 0.0023393221199512486 0.0036753843305632476 0.98061031103134166 0.0047445162199437627 0.98649600148201 0.59560608863830578 0.65395608544349682 0.69882121682167064 0.0093265473842620867 0.92863044142723095
decision_type=2 2 2 2 2 2 2 2 2 2 2 2 2 2 2 2 2 2 2 2 2 2 2 2 2 2 2 2
left_child=1 2 7 4 6 8 16 12 14 -5 -6 -4 13 -1 21 -8 -3 18 -13 22 -11 25 24 -10 -17 -2 -23 -21
right_child=5 3 11 9 10 -7 15 -9 23 20 -12 17 -14 -15 -16 19 -18 -19 -20 27 -22 26 -24 -25 -26 -27 -28 -29
leaf_value=0.063055710616852431 0 0.027219377314196092 0.025645780753515805 0 0 -0.024558994685231986 0.012894829505810888 0 -0.019543728315646595 -0.014595202595867416 -0.019694658125963271 0 0.030078125677880041 0.038773531469277547 -0.010658208391870821 0 0 0 0.013719018533966792 0 -0.022874494285828752 0.003819609645020444 0 0 0.0063296780204673275 -0.0056280210779915086 0 -0.00854392574180491
leaf_weight=648.44172957539558 13.312890261411665 121.86190703511238 131.45948621630669 20.956729620695114 14.292798489332197 1219.9264044165611 28.287150770425797 9.7276721894741041 216.21895736455917 304.14195811748505 218.53237953782082 21.237454295158386 62.647939711809158 122.74759954214096 177.79401043057442 9.0358434915542585 10.782291382551191 11.982054173946379 110.61399680376053 9.2990188896656019 520.82248222827911 42.611914783716202 9.2792182862758619 8.9690114259719831 33.47171014547348 70.318537950515747 28.552914440631866 30.958979666233063
leaf_count=2143 46 413 446 72 49 4275 96 33 752 1055 757 73 210 411 619 31 37 41 379 32 1812 147 32 31 115 244 99 107
internal_value=0 0.015168 0.048453 -0.0127705 -0.00022081 -0.0208894 0.0154095 0.0575944 -0.0122643 -0.0196681 -0.0179943 0.0188674 0.0582171 0.059901 -0.00670592 0.00163257 0.0256397 0.0102839 0.0118155 -0.000572119 -0.0202402 -0.00061029 0.00144868 -0.0190775 0.00445927 -0.00447119 0.00135733 -0.00717365
internal_weight=0 2450.58 1118.86 1331.72 485.801 1777.7 252.976 843.565 557.778 845.921 232.825 275.293 833.837 771.189 332.59 120.332 132.644 143.834 131.851 92.0448 824.964 154.796 51.7868 225.188 42.5076 83.6314 71.1648 40.258
internal_count=14557 8344 3736 4608 1669 6213 863 2797 1938 2939 806 939 2764 2554 1155 413 450 493 452 317 2867 536 178 783 146 290 246 139
is_linear=0
shrinkage=0.03178


Tree=5
num_leaves=24
num_cat=0
split_feature=5 11 11 11 5 11 3 11 5 5 3 3 11 3 11 3 3 3 3 5 5 3 3
split_gain=4827.61 322.1 178.656 30.6597 18.6579 11.528 8.1934 7.48225 7.47737 3.88272 3.65912 2.10378 2.68926 1.84786 0.700465 0.576019 0.567275 0.407387 0.357612 0.158384 1.73686 0.0792333 0.0196686
threshold=0.52381351590156566 0.061330717056989677 0.81395754218101513 0.13375244289636615 0.046397186815738685 0.13375244289636615 0.13893826305866244 0.59367695450782787 0.25309713184833532 0.21554048359394076 0.007299095857888461 0.0081582698039710539 0.19590173661708835 0.32745972275733953 0.53688508272171032 0.54299890995025646 0.0032713863765820865 0.0040016362909227618 0.61042723059654247 0.12028893083333971 0.14175327122211459 0.77253758907318126 0.82523953914642345
decision_type=2 2 2 2 2 2 2 2 2 2 2 2 2 2 2 2 2 2 2 2 2 2 2
left_child=1 4 5 10 -1 -2 -4 9 -6 11 -3 17 21 -7 15 16 -11 -5 -17 -12 -21 -13 -23
right_child=2 3 6 7 8 13 -8 -9 -10 14 19 12 -14 -15 -16 18 -18 -19 -20 20 -22 22 -24
leaf_value=-0.027051753257714674 0 0 0.060909022918080244 0 -0.017215446293118677 0.030000006768070974 0.021622488784217218 0.016081919433658002 0 0 -0.014502726180996602 0 -0.0075221025735862264 0.0068718294386622145 0 0 0.0099485447962477276 0.0076771370972402104 0.0025398979560395047 0 -0.0063085800657747722 0.0024014810674023754 0
leaf_weight=2229.4548993706703 12.521818578243254 42.423386722803116 936.93465715646744 18.833622515201569 274.34131121635437 192.32291561365128 33.522663980722427 61.908044666051865 25.673648655414581 9.2913977801799756 88.621283322572708 18.910597294569016 61.14148736000061 34.147739052772522 13.483855128288267 20.462503910064697 75.525713294744492 14.323749989271162 49.309052079916 10.304992914199827 70.148603975772858 9.1092317998409289 16.142371714115143
leaf_count=7645 42 143 3032 63 935 635 110 206 87 31 302 64 207 114 45 69 253 48 167 35 238 31 55
internal_value=0 -0.0209594 0.0536604 6.02238e-05 -0.0258433 0.0261445 0.0599526 0.00589565 -0.0157221 0.00282623 -0.00901996 0 -0.00326223 0.0277419 0.00604205 0.00662386 0.00910657 0.00470742 0.000356119 -0.0110306 -0.00392279 0 0.00154642
internal_weight=0 3109.41 1209.45 579.94 2529.47 238.992 970.457 368.442 300.015 306.534 211.498 138.461 105.304 226.471 168.073 154.589 84.8171 33.1574 69.7716 169.075 80.4536 44.1622 25.2516
internal_count=14557 10624 3933 1957 8667 791 3142 1239 1022 1033 718 468 357 749 565 520 284 111 236 575 273 150 86
is_linear=0
shrinkage=0.03178


Tree=6
num_leaves=14
num_cat=0
split_feature=12 12 12 7 12 12 12 4 4 4 12 7 7
split_gain=5040.18 290.177 202.836 36.3495 13.6998 5.96966 4.99912 7.03091 3.90535 2.30174 0.452307 0.255686 0.169299
threshold=0.29827728867530828 0.84831067919731151 0.065645266324281706 0.61634939908981334 0.95989286899566661 0.18426323682069781 0.47596432268619543 0.59826830029487621 0.5100390911102296 0.61439037322998058 0.31497184932231909 0.75020092725753795 0.65315937995910656
decision_type=2 2 2 2 2 2 2 2 2 2 2 2 2
left_child=2 3 -1 6 8 -4 10 -8 -3 12 -2 -11 -5
right_child=1 4 5 9 -6 -7 7 -9 -10 11 -12 -13 -14
leaf_value=-0.034986389987506222 0 0.029748818496574188 -0.01307461348120428 0 0.039239190351785427 -0.0027520470106960752 0.018864168811880536 0 0 0 0.0081441620682774045 -0.0081524934381093858 0.0015418418469256658
leaf_weight=2238.6888979673386 13.055447429418562 543.84499552845955 275.20933750271797 14.204414665699003 1410.6605617105961 148.65142041444778 493.04311856627464 18.687730640172958 11.591870635747908 11.937084585428236 139.3585139811039 32.707492470741272 65.681463956832886
leaf_count=6064 35 1451 741 38 3762 399 1317 50 31 32 373 88 176
internal_value=0 0.0300884 -0.0311353 0.0132065 0.0366742 -0.0100463 0.0161588 0.0181496 0.0293222 -0.00103184 0.00762183 -0.00682402 0.00023038
internal_weight=0 2754.77 2662.55 788.675 1966.1 423.861 664.145 511.731 555.437 124.53 152.414 44.6446 79.8859
internal_count=14557 7353 7204 2109 5244 1140 1775 1367 1482 334 408 120 214
is_linear=0
shrinkage=0.03178


Tree=7
num_leaves=19
num_cat=0
split_feature=10 10 10 10 10 14 14 14 10 14 14 14 10 5 5 10 14 10
split_gain=3462.06 294.411 157.062 23.9436 12.7263 11.1441 4.39804 4.06913 3.38354 3.01845 2.95309 1.39562 0.399502 0.365368 0.59292 0.329811 0.143693 0.10164
threshold=0.30775551497936254 0.83492296934127819 0.063945561647415175 0.17470028251409533 0.53132161498069774 0.8454246222972871 0.013219727203249933 0.0033871479099616413 0.022266653366386894 0.94102296233177196 0.0024671538267284636 0.92863044142723095 0.26425962150096899 0.012101281434297563 0.0044194082729518422 0.19691798090934756 0.017058620229363445 0.18973431736230853
decision_type=2 2 2 2 2 2 2 2 2 2 2 2 2 2 2 2 2 2
left_child=2 4 8 6 9 -6 -4 12 -1 10 13 15 17 14 -2 -9 -8 -5
right_child=1 -3 3 7 5 -7 16 11 -10 -11 -12 -13 -14 -15 -16 -17 -18 -19
leaf_value=-0.024673402489818367 0 0.057189664583589081 -0.012910790834095806 0 0.032144303414021587 0 0 0 -0.018813261237106464 0 0.019026864312471421 0 0 0 0.0060757704798327459 0.0074551956517064522 -0.0046824767627978679 -0.0041158565963169327
leaf_weight=1515.6086430549622 10.123174667358397 732.60324627161026 254.18206977844238 10.262180566787718 269.25673744082451 23.979831546545029 9.1204481422901136 28.385030210018158 725.36366701126099 11.113338977098463 178.29228013753891 15.70064467191696 22.836208134889603 9.2984729111194593 26.375942468643188 113.47774088382721 225.26999738812447 40.962945312261581
leaf_count=5380 35 2337 896 36 888 81 32 98 2565 38 603 54 79 32 90 388 782 143
internal_value=0 0.0439347 -0.0187739 -0.00541085 0.0245857 0.0302279 -0.00943999 0.00227198 -0.0229426 0.0159334 0.0167075 0.00550337 -0.00199328 0.00239168 0.00389399 0.00654584 -0.00452804 -0.00350546
internal_weight=0 1261.04 2961.17 720.197 528.44 293.237 488.573 231.625 2240.97 235.203 224.09 157.563 74.0613 45.7976 36.4991 141.863 234.39 51.2251
internal_count=14557 4104 10453 2508 1767 969 1710 798 7945 798 760 540 258 157 125 486 814 179
is_linear=0
shrinkage=0.03178


Tree=8
num_leaves=21
num_cat=0
split_feature=2 2 2 6 2 6 2 10 10 2 6 2 6 6 6 2 2 2 2 6
split_gain=4536.92 259.142 236.267 23.3824 13.6078 8.36513 6.28675 6.67673 5.14761 3.38903 1.43406 0.887569 0.523291 0.965231 1.30499 0.495584 0.454589 0.410992 0.0303593 0.0104656
threshold=0.36578646302223211 0.89402171969413768 0.057210994884371764 0.68610176444053661 0.018580560572445396 0.80149111151695263 0.59560608863830578 0.61423844099044811 0.012606830801814796 0.19231890887022021 0.72862508893013012 0.24000973254442218 0.0012185503146611156 0.099085364490747466 0.62064993381500255 0.07573446631431581 0.08516246080398561 0.14327689260244372 0.10248860716819765 0.0015186778036877515
decision_type=2 2 2 2 2 2 2 2 2 2 2 2 2 2 2 2 2 2 2 2
left_child=2 3 4 6 -1 9 8 -8 -2 12 19 -7 -4 16 15 -15 -14 -18 -16 -11
right_child=1 -3 5 -5 -6 11 7 -9 -10 10 -12 -13 13 14 18 -17 17 -19 -20 -21
leaf_value=-0.026849272058523221 0 0.057657366162952195 -0.0041642894529726662 0 -0.017216909992653684 -0.008728755144516858 0.032717383662754597 0 0.01734061490550114 0 0 0 0 0 0.0011732935710308755 -0.0065317464772713454 0.005626212863711102 0 0 0.0075043734347774362
leaf_weight=2159.2440342903137 16.238009572029114 948.8336533010006 22.26578813791275 26.037477016448975 363.99488645792007 99.573205053806305 225.76363235712051 14.205996692180632 102.43595036864281 13.5197656750679 12.371993005275725 17.007579982280731 34.51099294424057 9.362884193658827 14.062416136264799 38.332743644714355 44.921138942241669 28.622163414955139 20.895327001810074 99.119330525398254
leaf_count=7546 54 2964 75 88 1254 343 728 47 337 45 42 58 117 32 48 130 151 96 71 331
internal_value=0 0.0485429 -0.0218108 0.0248089 -0.0256004 -0.000254192 0.0268986 0.0313366 0.0148742 0.00183257 0.00586682 -0.00765663 0 0 -0.00135652 -0.0051542 0.00263564 0.00393635 0 0.00706598
internal_weight=0 1333.51 2977.8 384.681 2523.24 454.565 358.644 239.97 118.674 337.985 125.011 116.581 212.973 190.708 82.6534 47.6956 108.054 73.5433 34.9577 112.639
internal_count=14557 4218 10339 1254 8800 1539 1166 775 391 1138 418 401 720 645 281 162 364 247 119 376
is_linear=0
shrinkage=0.03178


Tree=9
num_leaves=17
num_cat=0
split_feature=14 7 14 7 7 14 14 14 1 7 1 14 7 1 14 7
split_gain=1881.3 2533.8 148.939 132.757 106.295 26.9553 25.652 21.4205 11.0724 9.25799 2.44187 2.36963 1.35866 0.930751 0.626241 0.0566161
threshold=0.27540740370750433 0.54474341869354259 0.79605266451835643 0.10533325001597406 0.79811176657676708 0.034264147281646735 0.048396671190857894 0.027444907464087013 0.66152134537696849 0.96258854866027843 0.62060943245887767 0.8988497555255891 0.73070281744003307 0.30751688778400427 0.011975958943367006 0.32231302559375768
decision_type=2 2 2 2 2 2 2 2 2 2 2 2 2 2 2 2
left_child=1 3 -2 5 7 -1 8 10 -5 -6 12 -4 -3 15 -12 -8
right_child=2 4 11 6 9 -7 13 -9 -10 -11 14 -13 -14 -15 -16 -17
leaf_value=0.03703572141189982 -0.010324476482497826 0.0068564973996053232 -0.02138516346968293 0.019325846245428487 -0.022525237839019753 0.022709332674655223 0.001237389701068767 -0.018639700927134774 0 -0.033269077443605556 -0.003553734861138697 -0.03399633203734239 0 -0.0054670831601301324 0 0
leaf_weight=1688.2152406275272 443.79081028699875 80.7574422955513 168.09818965196609 401.28651687502861 410.85914063453674 286.66117992997169 29.13419097661972 61.283201217651367 18.286695271730423 569.21512943506241 48.848662823438644 1126.6403465270996 19.038293659687042 23.719474345445633 11.517114967107771 11.543722271919249
leaf_count=4505 1197 216 456 1071 1115 765 78 166 49 1553 131 3078 51 64 31 31
internal_value=0 0.0129207 -0.0271504 0.0314071 -0.024699 0.0351614 0.0153432 -0.00357992 0.0182039 -0.0291955 0.00160227 -0.0326602 0.00510099 -0.000444424 -0.0011336 0
internal_weight=0 3660.37 1738.53 2458.85 1201.52 1974.88 483.971 221.445 419.573 980.074 160.162 1294.74 99.7957 64.3974 60.3658 40.6779
internal_count=14557 9826 4731 6563 3263 5270 1293 595 1120 2668 429 3534 267 173 162 109
is_linear=0
shrinkage=0.03178


Tree=10
num_leaves=17
num_cat=0
split_feature=12 14 12 8 12 12 8 8 14 12 8 14 8 14 12 12
split_gain=1180.3 1920.67 209.068 90.7343 54.8926 44.0723 41.4124 19.4507 8.4691 4.92062 2.46248 1.97068 0.891641 0.665878 3.89188 0.438825
threshold=0.6534252166748048 0.31965398788452154 0.18426323682069781 0.25817294418811804 0.15572009980678561 0.93728742003440868 0.96657368540763866 0.75492656230926525 0.8572872281074525 0.41772904992103582 0.083671897649765029 0.42607015371322637 0.046964444220066077 0.16696789860725406 0.065645266324281706 0.84831067919731151
decision_type=2 2 2 2 2 2 2 2 2 2 2 2 2 2 2 2
left_child=1 2 7 4 -3 15 11 13 -8 -4 -11 -5 -6 14 -1 -2
right_child=5 3 9 6 12 -7 8 -9 -10 10 -12 -13 -14 -15 -16 -17
leaf_value=0.055263826353732483 -0.0078781376812416207 0.026082875353417585 0.023514307052774609 0 0 -0.023864259110092715 0 0 -0.021999271347537583 0.010810639991128633 0 -0.0089404770482738229 -0.012895638480874246 0.027318790821096124 0.034840184820437194 -0.01449132440913427
leaf_weight=696.88054612278938 275.78356286883354 85.944228053092957 135.61547437310219 30.467112272977829 12.341327607631682 1172.9928544163704 10.521240711212156 9.8778353631496412 579.3642255961895 136.19601157307625 9.2417418956756574 550.68080401420593 42.961420118808746 63.963500708341599 128.29335814714432 271.47412025928497
leaf_count=2150 969 281 446 105 43 4275 37 33 2067 461 32 1922 153 205 409 969
internal_value=0 0.0139693 0.0432866 -0.0123455 0.0104191 -0.0201831 -0.0153172 0.0508813 -0.0214745 0.0175353 0.0096775 -0.00851016 -0.0109456 0.0513741 0.0527071 -0.0116906
internal_weight=0 2492.35 1180.07 1312.28 141.247 1720.25 1171.03 899.015 589.885 281.053 145.438 581.148 55.3027 889.137 825.174 547.258
internal_count=14557 8344 3736 4608 477 6213 4131 2797 2104 939 493 2027 196 2764 2559 1938
is_linear=0
shrinkage=0.03178


Tree=11
num_leaves=19
num_cat=0
split_feature=8 8 8 3 8 1 1 3 3 3 3 1 3 3 3 8 3 8
split_gain=4148.93 233.022 171.007 37.4229 25.4231 21.8877 9.2419 6.73715 6.67871 3.87812 3.06692 0.878515 0.503263 0.351594 0.662027 0.157151 0.0935681 0.000842216
threshold=0.28021349012851721 0.88504183292388927 0.024441236630082134 0.25310680270195013 0.073643568903207793 0.63976749777793895 0.086675830185413374 0.27261187136173254 0.007299095857888461 0.51520854234695446 0.81406652927398693 0.17988515645265582 0.0049788237083703288 0.0046859586145728835 0.0081582698039710539 0.62012669444084179 0.011925125960260631 0.15552323311567309
decision_type=2 2 2 2 2 2 2 2 2 2 2 2 2 2 2 2 2 2
left_child=2 3 -1 5 8 -2 7 -3 12 13 11 -5 -4 17 -15 -7 -16 -6
right_child=1 6 4 10 9 15 -8 -9 -10 -11 -12 -13 -14 14 16 -17 -18 -19
leaf_value=-0.025968414587209488 0.034961234504196533 0.055140014644216792 -0.0029253724942810721 0.011526434084424234 0 0.0054855030702813078 0.02295023017368155 0.0058255962240118956 -0.015301957278927757 -0.0038312705184087069 0 0 0 0.0086079430339627179 0 0 0.0010411392671307151 0.00017085413816239124
leaf_weight=2264.6771457493305 253.07232981920242 896.09331411123276 53.871908366680145 130.62033340334892 27.516894608736038 33.035874426364899 48.988443493843079 14.166738182306288 242.84540754556656 133.34508508443832 19.579443484544754 10.229466736316679 15.980928629636763 30.423101961612701 11.919179052114485 13.394946515560148 78.969212889671326 20.928394228219986
leaf_count=8059 796 2709 183 431 92 110 153 45 846 460 67 34 54 101 40 44 264 69
internal_value=0 0.0443208 -0.0219077 0.0242371 -0.00650265 0.0311374 0.0534527 0.0546529 -0.0127371 0 0.0092599 0.010853 -0.000542955 0.00321449 0.00411575 0.0044508 0 0
internal_weight=0 1419.18 2880.48 459.932 615.8 299.503 959.248 910.26 312.698 303.102 160.429 140.85 69.8528 169.757 121.311 46.4308 90.8884 48.4453
internal_count=14557 4389 10168 1482 2109 950 2907 2754 1083 1026 532 465 237 566 405 154 304 161
is_linear=0
shrinkage=0.03178


Tree=12
num_leaves=16
num_cat=0
split_feature=11 10 10 11 2 10 10 10 11 10 11 2 11 10 2
split_gain=1786.41 2498.76 121.39 69.446 67.8694 54.8258 11.522 8.93801 6.31931 6.26985 0.268002 0.191908 0.120726 0.119638 0.0393954
threshold=0.38720931112766271 0.53132161498069774 0.26425962150096899 0.068202331662178053 0.68129819631576549 0.83492296934127819 0.063945561647415175 0.063945561647415175 0.054891152307391174 0.61423844099044811 0.0022581791272386913 0.59560608863830578 0.15411313623189929 0.078705247491598143 0.22344850748777392
decision_type=2 2 2 2 2 2 2 2 2 2 2 2 2 2 2
left_child=1 2 3 7 -2 9 11 -1 10 -3 -4 -5 -10 -8 -15
right_child=4 5 8 6 -6 -7 13 -9 12 -11 -12 -13 -14 14 -16
leaf_value=0.035280246382906541 -0.01232640783439666 -0.00034342584032955823 0 0.019010122536758399 -0.032051004772427311 -0.031174348127033916 0 0.026334617784106389 0 -0.016083122706582971 0.0097667813087318252 0 -0.0025305390732336067 0.0017785640021760816 0
leaf_weight=1549.673373401165 262.78440776467323 58.37064591050148 16.09495210647583 230.69804635643959 1273.2853218019009 850.75456869602203 12.705009937286375 518.97040340304375 19.367492496967316 272.94248619675636 224.46033385396004 15.653537780046461 14.851120322942732 42.998300313949585 11.510917842388151
leaf_count=4145 712 157 43 616 3506 2337 34 1386 52 741 600 42 40 115 31
internal_value=0 0.0115715 0.0286851 0.0310192 -0.0288918 -0.026657 0.0152169 0.033247 0.00741694 -0.0139846 0.00938777 0.0183957 -0.000779051 0.000134837 0.00139584
internal_weight=0 3839.05 2656.98 2382.21 1536.07 1182.07 313.566 2068.64 274.774 331.313 240.555 246.352 34.2186 67.2142 54.5092
internal_count=14557 10339 7104 6369 4218 3235 838 5531 735 898 643 658 92 180 146
is_linear=0
shrinkage=0.03178


Tree=13
num_leaves=20
num_cat=0
split_feature=7 7 7 7 7 7 14 14 14 14 7 5 7 14 7 7 14 7 14
split_gain=3110.01 194.546 174.394 23.4546 16.1467 13.3209 5.43349 2.26976 1.31026 1.85629 1.01578 0.493017 0.416976 0.0567062 0.0916782 0.174713 0.0278142 0.0166358 0.000524761
threshold=0.4509731531143189 0.071354590356349959 0.76759690046310436 0.97099429368972789 0.027318163774907592 0.21190592646598819 0.91610532999038707 0.051548235118389137 0.0025774553650990133 0.81270295381546032 0.11120629310607912 0.60642942786216747 0.078627880662679686 0.8988497555255891 0.12786936759948733 0.1811851188540459 0.96580255031585704 0.17312976717948916 0.0015834414516575637
decision_type=2 2 2 2 2 2 2 2 2 2 2 2 2 2 2 2 2 2 2
left_child=1 4 6 -4 -1 7 11 17 18 -10 12 -2 -9 14 -12 -16 -15 -3 -7
right_child=2 5 3 -5 -6 8 -8 10 9 -11 13 -13 -14 16 15 -17 -18 -19 -20
leaf_value=-0.023908579833821414 0.019808210995694193 -0.009204822161647851 0.039440761796226846 0.055031172267752011 -0.014900151339920242 0 0 0 0.0060583840264384235 0 0 0.0019367260910780068 -0.0052766464352221841 -0.0010118555260189514 0.0028841975779829937 0 0 0 -0.00012627906729230544
leaf_weight=1868.9615238308907 247.24634653329849 160.65327534079552 515.30646029114723 477.3011891245842 441.20745545625687 21.095064908266068 16.475234568119049 14.1389142870903 160.24838000535965 42.144904047250748 10.957384049892424 29.736780077219009 50.417426019906998 19.226001918315887 31.016546458005905 11.928660303354262 16.864820808172226 39.551724135875702 25.024809807538986
leaf_count=6862 813 576 1596 1425 1596 74 56 50 549 145 38 100 177 67 107 41 59 139 87
internal_value=0 -0.0181431 0.0410339 0.0475307 -0.0223347 -0.0016748 0.0176887 -0.00579374 0.00340989 0.00452295 -0.00106714 0.0187138 -0.00407991 0 0.000960231 0.00171159 0 -0.00828063 0
internal_weight=0 2913.44 1286.07 992.608 2310.17 603.268 293.458 354.755 248.513 202.393 154.55 276.983 64.5563 89.9934 53.9026 42.9452 36.0908 200.205 46.1199
internal_count=14557 10567 3990 3021 8458 2109 969 1254 855 694 539 913 227 312 186 148 126 715 161
is_linear=0
shrinkage=0.03178


Tree=14
num_leaves=18
num_cat=0
split_feature=2 2 2 8 8 8 9 8 9 9 8 9 2 2 8 2 2
split_gain=3907.24 212.715 209.842 26.7018 16.6518 8.44861 6.96505 3.2235 2.86732 2.11685 1.85399 1.92561 1.31484 1.18148 0.60769 0.511825 0.000169377
threshold=0.34072880446910864 0.89402171969413768 0.057210994884371764 0.073643568903207793 0.42782108485698706 0.083671897649765029 0.0042345537804067144 0.40073806047439581 0.46535184979438787 0.00043774403457064187 0.24185834825038913 0.8745572865009309 0.59560608863830578 0.20811089128255847 0.22499009966850284 0.3907934725284577 0.08516246080398561
decision_type=2 2 2 2 2 2 2 2 2 2 2 2 2 2 2 2 2
left_child=2 4 3 9 8 6 16 -3 15 -1 -7 -12 -6 -8 -5 -2 -4
right_child=1 7 5 14 12 10 13 -9 -10 -11 11 -13 -14 -15 -16 -17 -18
leaf_value=0 0 0.0012739237252912075 0 -0.0052952962126870161 0.013449055047218829 0 -0.010954716593250563 0.051383027528408863 0 -0.025646581863785468 0.0067783759473545903 0 0.030565339633554345 0 0 0.013060655069375759 0.0017582808154912232
leaf_weight=1.4115005135536183 13.022200942039488 10.078368693590162 14.967828780412672 61.25568500161171 76.722344517707825 128.81040397286415 116.19135046005249 994.54089605808258 34.429025709629059 2345.2165316939354 114.91265442967415 12.05005297064781 204.68973124027252 20.399278819561005 22.623810321092606 83.7432701587677 28.03804737329483
leaf_count=5 43 31 51 214 246 438 406 2933 116 8503 381 41 635 70 78 271 95
internal_value=0 0.0430178 -0.0213361 -0.0249671 0.0222531 -0.000520418 -0.00602307 0.0510956 0.00938278 -0.0256212 0.00263996 0.00524052 0.0271148 -0.00973956 -0.00380617 0.0120207 0.00147808
internal_weight=0 1417.23 2865.88 2430.51 412.607 435.37 179.597 1004.62 131.194 2346.63 255.773 126.963 281.412 136.591 83.8795 96.7655 43.0059
internal_count=14557 4275 10282 8800 1311 1482 622 2964 430 8508 860 422 881 476 292 314 146
is_linear=0
shrinkage=0.03178


Tree=15
num_leaves=10
num_cat=0
split_feature=9 9 9 1 9 1 9 1 1
split_gain=4155.46 201.149 178.979 24.8702 24.5346 15.3717 9.70697 3.09592 1.33941
threshold=0.38991600275039678 0.8623567819595338 0.043028729036450393 0.63976749777793895 0.15743111819028857 0.10446261242032052 0.7057434916496278 0.49431316554546362 0.77764874696731578
decision_type=2 2 2 2 2 2 2 2 2
left_child=2 3 -1 6 -4 -3 -2 -8 -5
right_child=1 5 4 8 -6 -7 7 -9 -10
leaf_value=-0.033455137923388036 0.010149781640043936 0.033818018267667081 -0.0188814724927935 0 -0.0042899943587113281 0.01534733446237326 0.019925220972276596 0 -0.0072305484458361161
leaf_weight=2017.7291802465916 393.07966995239258 1780.8279529511929 290.39426076412201 34.69229257106781 273.76289281249046 109.5815866291523 405.72371092438698 12.711068123579023 27.435443341732025
leaf_count=5608 1052 4780 798 93 741 293 1084 34 74
internal_value=0 0.0270152 -0.0289691 0.0138082 -0.0123193 0.0329255 0.0153342 0.0194386 -0.00269497
internal_weight=0 2764.05 2581.89 873.642 564.157 1890.41 811.514 418.435 62.1277
internal_count=14557 7410 7147 2337 1539 5073 2170 1118 167
is_linear=0
shrinkage=0.03178


Tree=16
num_leaves=22
num_cat=0
split_feature=9 2 9 2 9 14 9 14 14 14 9 9 9 2 2 2 2 14 2 9 14
split_gain=1039.94 1482.27 314.034 86.4029 98.9526 36.752 28.564 12.8665 11.0897 10.8891 4.60014 3.81733 3.55005 2.687 2.47927 2.265 1.81371 0.956028 0.604797 0.506705 0.250205
threshold=0.7057434916496278 0.29835577309131628 0.23316141217947009 0.89402171969413768 0.043028729036450393 0.023149237968027595 0.91665345430374157 0.16696789860725406 0.8454246222972871 0.70892235636711132 0.10123485699295999 0.54168829321861278 0.77712681889534008 0.025676841847598556 0.02191947773098946 0.98061031103134166 0.0015649270499125125 0.98649600148201 0.8521745800971986 0.020707475952804092 0.073435161262750639
decision_type=2 2 2 2 2 2 2 2 2 2 2 2 2 2 2 2 2 2 2 2 2
left_child=1 2 7 4 8 14 12 -1 18 -5 -6 20 -2 -13 16 -11 -4 19 -3 -10 -7
right_child=6 3 5 9 10 11 -8 -9 17 15 -12 13 -14 -15 -16 -17 -18 -19 -20 -21 -22
leaf_value=0.048020220220591762 -0.0037472939084820479 0.022095955768344003 0 0 0 0.0030358229268077179 -0.022563882853218475 0.028071637234265211 0.0051662969483123305 -0.013499500656426572 -0.019277252358217749 0 -0.013821809025208867 -0.013933558390994027 0 -0.021791609648210124 0.018299641508044192 0 0 0 0
leaf_weight=816.64097252488136 112.69919815659523 108.54679873585701 12.157713264226912 27.815304070711136 25.940552979707718 19.207979053258896 1127.9698003232479 134.33078283071518 64.569221019744873 292.34270372986794 150.3572371006012 12.959911227226256 422.5467055439949 35.706955462694168 29.375351876020432 492.50235542654991 232.47907480597496 9.2083913981914503 13.184727162122725 8.9499281942844373 33.773543536663055
leaf_count=2404 399 351 41 97 90 63 4275 421 220 1055 536 44 1539 128 97 1812 760 32 45 31 117
internal_value=0 0.0128932 0.0359518 -0.0126405 0 0.0103479 -0.0194148 0.0456789 0.0146524 -0.0184446 -0.0171519 -0.00422089 -0.0121635 -0.0101091 0.0164387 -0.0191312 0.0176502 0.00226184 0.0208325 0.00418406 0
internal_weight=0 2520.05 1326.63 1193.42 380.757 375.661 1663.22 950.972 204.459 812.66 176.298 101.648 535.246 48.6669 274.012 784.845 244.637 82.7275 121.732 73.5191 52.9815
internal_count=14557 8344 4075 4269 1305 1250 6213 2825 679 2964 626 352 1938 172 898 2867 801 283 396 251 180
is_linear=0
shrinkage=0.03178


Tree=17
num_leaves=15
num_cat=0
split_feature=5 5 5 5 6 7 6 6 7 6 5 5 6 6
split_gain=3549.32 257.997 114.671 23.0828 11.174 8.93461 8.49701 5.09287 4.02984 2.03711 1.41162 1.72074 0.0452446 0.0680447
threshold=0.50047224760055553 0.05579600669443608 0.80336335301399242 0.16616870462894442 0.48761777579784399 0.83481097221374523 0.72862508893013012 0.28936888277530676 0.6965065896511079 0.0011587381595745685 0.47713844478130346 0.36728578805923467 0.91066154837608349 0.88291415572166454
decision_type=2 2 2 2 2 2 2 2 2 2 2 2 2 2
left_child=1 -1 4 -3 5 -2 9 8 -4 -5 11 -11 13 -8
right_child=2 3 7 6 -6 -7 12 -9 -10 10 -12 -13 -14 -15
leaf_value=-0.025290884620730342 0.024934666015851474 -0.0088910200398126821 0.047472635692673799 0 0 0 -0.0011178168262939588 0 0 0.0026712919289177471 0 0.011723898121339867 -0.0068024716002201531 0
leaf_weight=2176.8707281649113 205.25194472074509 355.8355940580368 1080.3582562804222 22.39253494143486 30.731302440166473 19.808668047189713 46.788734376430511 10.935264229774473 10.164738535881041 155.94998508691788 14.814194709062575 77.824505150318146 43.228668332099915 11.785174101591108
leaf_count=8059 632 1254 3126 75 101 65 161 34 32 521 48 254 154 41
internal_value=0 -0.0198154 0.0422778 -0.00308091 0.0206346 0.0230273 0.00200321 0.0469308 0.0472133 0.00527747 0.00618806 0.00682114 -0.00460663 0
internal_weight=0 2905.49 1357.25 728.619 255.792 225.061 372.784 1101.46 1090.52 270.981 248.589 233.774 101.803 58.5739
internal_count=14557 10567 3990 2508 798 697 1254 3192 3158 898 823 775 356 202
is_linear=0
shrinkage=0.03178


Tree=18
num_leaves=13
num_cat=0
split_feature=6 6 3 3 6 3 6 8 6 3 8 6
split_gain=3990.45 227.116 170.397 20.5293 19.657 17.2761 4.58282 0.53078 0.298964 0.318376 0.310474 0.244392
threshold=0.27075622975826269 0.8117712438106538 0.11734051257371904 0.51520854234695446 0.9588870406150819 0.37278221547603613 0.45307826995849615 0.0036262776702642445 0.17411207407712939 0.52865114808082592 0.0077394621912390002 0.50813943147659313
decision_type=2 2 2 2 2 2 2 2 2 2 2 2
left_child=2 3 -1 6 -3 -4 7 -2 10 -10 -7 -8
right_child=1 4 5 -5 -6 8 11 -9 9 -11 -12 -13
leaf_value=-0.032149073318254416 0 0.025016974546112992 -0.013610972081272958 0.013821079428776079 0.034630361890714313 -0.0031679093417983943 0 -0.003714413192626121 0 0.0031104046249748954 0 0.0067662694873485418
leaf_weight=2155.5267423093319 11.933563500642775 637.49807184934616 250.53159263730049 493.86193987727165 1413.7262455523014 37.661638826131821 24.216961473226547 89.396347731351852 24.130018174648285 41.062360525131226 47.653490632772446 83.716835707426071
leaf_count=6054 32 1710 687 1319 3819 102 65 241 65 110 129 224
internal_value=0 0.026469 -0.0285786 0.0102899 0.0318531 -0.00863089 0.000813587 -0.0027203 0 0.00145385 -0.00125281 0.00584049
internal_weight=0 2754.35 2556.57 703.126 2051.22 401.039 209.264 101.33 150.508 65.1924 85.3151 107.934
internal_count=14557 7410 7147 1881 5529 1093 562 273 406 175 231 289
is_linear=0
shrinkage=0.03178


Tree=19
num_leaves=20
num_cat=0
split_feature=13 10 13 13 10 10 13 13 10 13 10 10 10 10 10 13 13 13 10
split_gain=2627.78 199.389 154.936 50.0954 17.6315 13.8353 7.44503 4.9398 1.79815 1.17172 0.75953 0.684855 0.798728 0.424449 0.366687 0.308519 0.239502 0.114881 0.00198194
threshold=0.35572208464145666 0.17470028251409533 0.81621181964874279 0.023898066952824596 0.22312631458044055 0.37374269962310797 0.13906149566173556 0.097739879041910185 0.13950882852077487 0.060121692717075355 0.30775551497936254 0.18973431736230853 0.063945561647415175 0.023374272510409359 0.34426936507225042 0.036740649491548545 0.017536567524075512 0.16015641391277316 0.15101807564496997
decision_type=2 2 2 2 2 2 2 2 2 2 2 2 2 2 2 2 2 2 2
left_child=1 3 4 -1 11 7 8 -3 -5 15 -4 12 -2 -8 -9 16 -7 -15 -10
right_child=2 5 10 6 -6 9 13 14 18 -11 -12 -13 -14 17 -16 -17 -18 -19 -20
leaf_value=-0.02327706480346033 0 -0.0062816361351073265 0.012307985782615686 -0.014517111816402292 0.023246459744341242 0 0 0.0036858315013341262 0 0.013434989488454813 0.045522885391547051 0 0.0063693868222563094 0 0 0 0.0047765222002079969 -0.0041367640499735958 -0.00024713420243985945
leaf_weight=1781.899465739727 17.650107115507126 88.07379412651062 24.975626528263092 543.45083424448967 342.61793398857117 9.1863403320312518 12.10536941885948 106.70933240652084 11.89374467730522 116.77079531550407 860.33155566453934 12.055433809757231 54.161227852106094 25.031935185194016 10.052720308303831 13.552147865295408 16.048481345176697 93.298411756753922 24.56330531835556
leaf_count=6773 62 313 80 2022 1079 31 45 370 43 380 2485 41 186 91 34 45 53 335 89
internal_value=0 -0.0170686 0.0371371 -0.0202707 0.0199386 0.00448167 -0.0122665 -7.33088e-05 -0.0139497 0.0114247 0.0449352 0.00334784 0.00464114 -0.00293263 0.00308694 0 0.00305228 -0.00357921 0
internal_weight=0 2852.64 1311.79 2492.24 426.485 360.394 710.344 204.836 579.908 155.558 885.307 83.8668 71.8113 130.436 116.762 38.787 25.2348 118.33 36.457
internal_count=14557 10624 3933 9398 1368 1226 2625 717 2154 509 2565 289 248 471 404 129 84 426 132
is_linear=0
shrinkage=0.03178


Tree=20
num_leaves=16
num_cat=0
split_feature=14 14 14 7 14 14 14 10 10 10 7 10 14 14 14
split_gain=3350.36 256.043 116.111 11.2179 7.99398 7.97484 6.08444 5.21749 1.98723 1.22827 0.879 0.239111 0.569665 0.0392874 0.0820376
threshold=0.27540740370750433 0.88096964359283458 0.045696126297116287 0.76759690046310436 0.1543400436639786 0.70892235636711132 0.010548455175012352 0.07021822035312654 0.54982537031173717 0.004363253479823471 0.0050093503668904313 0.8490300476551057 0.70892235636711132 0.25549924373626715 0.17787496745586398
decision_type=2 2 2 2 2 2 2 2 2 2 2 2 2 2 2
left_child=2 3 6 5 -4 9 -1 -3 10 -2 -7 12 -5 14 -6
right_child=1 7 4 11 13 8 -8 -9 -10 -11 -12 -13 -14 -15 -16
leaf_value=-0.026272245143014017 0 0.046711911480837177 -0.008668108527846715 0.0047446352640685453 0 0 -0.018628743814659048 0.031033747718156212 0 0.012057540821794163 0.026341032071096962 0 0 0 0.0011552977889772624
leaf_weight=1778.9593815207481 11.383657068014143 934.530402302742 273.57371115684509 28.074282497167587 33.164048731327057 10.545967906713484 449.50098451972008 184.92982563376427 9.9218797385692579 237.04741230607033 150.79593122005463 24.713832139968872 11.72695207595825 16.650834381580353 83.594795614480972
leaf_count=6748 38 2644 969 92 114 33 1653 548 32 766 456 84 38 57 285
internal_value=0 0.0361091 -0.022022 0.0157702 -0.00561676 0.0176825 -0.0248955 0.0445472 0.0244661 0.0115802 0.0254059 0 0.00224273 0 0.000563479
internal_weight=0 1603.67 2635.44 484.21 406.983 419.695 2228.46 1119.46 171.264 248.431 161.342 64.5151 39.8012 133.41 116.759
internal_count=14557 4731 9826 1539 1425 1325 8401 3192 521 804 489 214 130 456 399
is_linear=0
shrinkage=0.03178


Tree=21
num_leaves=16
num_cat=0
split_feature=3 3 3 7 7 3 7 3 7 3 10 7 7 3 3
split_gain=3720.31 246.6 88.772 40.3213 12.272 7.69727 6.54469 4.58041 3.04251 3.03067 2.92869 0.78913 0.552641 0.227685 0.158296
threshold=0.2922531664371491 0.82523953914642345 0.072653681039810195 0.4509731531143189 0.046494694426655776 0.46880646049976354 0.7834967076778413 0.52865114808082592 0.58210307359695446 0.25310680270195013 0.16104499995708468 0.25009030103683477 0.39057488739490515 0.37278221547603613 0.50158101320266735
decision_type=2 2 2 2 2 2 2 2 2 2 2 2 2 2 2
left_child=2 3 -1 5 -3 11 7 13 -6 -4 -9 -2 -7 -5 -15
right_child=1 4 9 6 8 12 -8 10 -10 -11 -12 -13 -14 14 -16
leaf_value=-0.031760028779340387 0.005038967051769646 0.03278957638701404 -0.014117510588569511 0 0.022881938839198708 0.017114706023465851 -0.0051582951065661502 0 0 0 0.010264942355854371 0 0.00064249829690870902 -0.0030149208075616767 0
leaf_weight=2052.2924353480339 89.74750217795372 1547.8677812516689 309.42000541090965 19.74790358543396 352.35075458884239 532.69739276170731 107.44968372583389 16.104898124933243 11.576573014259337 41.982731521129608 97.298215955495834 16.081254005432129 28.830935657024384 34.675675600767136 13.063076406717299
leaf_count=5836 242 4208 855 53 948 1427 292 43 31 114 260 43 77 93 35
internal_value=0 0.0243736 -0.0291469 0.0107355 0.0310102 0.0149906 5.86264e-05 0.00432268 0.0223392 -0.0129431 0.00819106 0.00384992 0.0166475 0 -0.00202732
internal_weight=0 2867.49 2403.7 955.697 1911.8 667.357 288.339 180.89 363.927 351.403 113.403 105.829 561.528 67.4867 47.7388
internal_count=14557 7752 6805 2565 5187 1789 776 484 979 969 303 285 1504 181 128
is_linear=0
shrinkage=0.03178


Tree=22
num_leaves=21
num_cat=0
split_feature=4 4 4 4 8 8 4 4 5 5 8 8 8 4 4 8 4 5 8 8
split_gain=2402.11 186.224 98.5948 16.8575 11.4147 10.3072 6.36087 3.2071 2.32554 3.4404 2.48391 1.94204 1.46037 1.55225 1.03047 2.01648 0.400136 0.313055 0.670306 0.0190486
threshold=0.25742083787918096 0.59826830029487621 0.070966806262731566 0.87335181236267101 0.22499009966850284 0.0031317337416112427 0.21054267883300784 0.020816392265260223 0.78814342617988598 0.0052608929108828315 0.96420431137084972 0.40073806047439581 0.90539163351058971 0.45975673198699957 0.2410257235169411 0.73235753178596508 0.43996216356754309 0.89522829651832592 0.84512394666671764 0.88504183292388927
decision_type=2 2 2 2 2 2 2 2 2 2 2 2 2 2 2 2 2 2 2 2
left_child=2 12 7 11 -5 -4 8 -1 9 -7 17 -3 13 16 15 -8 -2 18 -10 -19
right_child=1 3 5 4 -6 6 14 -9 10 -11 -12 -13 -14 -15 -16 -17 -18 19 -20 -21
leaf_value=-0.023760923910499263 0.0098147477006944178 0.032095322048708658 -0.013333213628842464 0.045227709280852707 0 0 0.0089891906876958267 -0.018262215644219638 0.0018470192653846577 -0.0081919121171327505 -0.0078700749080261034 0.0062343758590949448 0 0.018787565952667423 0 0 0 0 -0.0036549717309001559 0.0040647996240057377
leaf_weight=1016.0220291763544 230.230503231287 355.88803046941757 175.89675131440163 651.98006230592728 13.638585090637205 24.433850705623627 41.420178413391113 1015.7487626671791 45.005323886871338 244.1093507707119 31.181284785270691 27.707910269498825 9.6724717020988447 142.88049119710922 25.259625375270844 10.272542566061018 17.799058765172958 17.635265469551086 28.876228332519531 16.358917474746704
leaf_count=3945 771 1052 663 1839 42 88 143 3886 151 888 116 88 34 449 87 36 57 60 103 59
internal_value=0 0.0329313 -0.0176881 0.0400533 0.0445762 -0.00646407 -0.00337707 -0.0211962 -0.00516924 -0.00697334 -0.000109335 0.0309163 0.0133497 0.0136466 0.00331017 0.00574031 0.00938408 0.000779545 0 0.00302702
internal_weight=0 1449.8 2692.22 1049.21 665.619 660.449 484.553 2031.77 407.6 268.543 139.057 383.596 400.583 390.91 76.9523 51.6927 248.03 107.876 73.8816 33.9942
internal_count=14557 4332 10225 3021 1881 2394 1731 7831 1465 976 489 1140 1311 1277 266 179 828 373 254 119
is_linear=0
shrinkage=0.03178


Tree=23
num_leaves=20
num_cat=0
split_feature=14 5 14 11 11 5 14 11 5 11 11 14 14 11 5 5 5 11 14
split_gain=3129.9 249.517 114.149 20.0371 17.2823 14.937 12.0666 3.6811 1.92045 1.60379 0.868501 0.41398 0.630163 0.282137 0.142603 0.995264 0.186125 0.0816717 1.11178e-07
threshold=0.27540740370750433 0.77033346891403209 0.045696126297116287 0.13375244289636615 0.13375244289636615 0.21554048359394076 0.56972694396972667 0.59367695450782787 0.24031117558479312 0.56342273950576793 0.038870627060532577 0.25549924373626715 0.17787496745586398 0.11729414016008378 0.21554048359394076 0.039690420031547553 0.10329244285821916 0.32011441886425024 0.090511262416839613
decision_type=2 2 2 2 2 2 2 2 2 2 2 2 2 2 2 2 2 2 2
left_child=2 3 5 14 8 10 -3 9 13 -5 -1 12 18 -4 15 -2 -17 -7 -6
right_child=1 6 4 7 11 17 -8 -9 -10 -11 -12 -13 -14 -15 -16 16 -18 -19 -20
leaf_value=-0.025607694029103845 0 0.0064151118812737764 -0.011847887883633732 0.011676244138570503 1.4897436147391954e-06 -0.0014634786196044446 0.042948784082009528 0.022576464451193472 0 0 -0.015589432755687527 0 0.0057344882764121374 0 -0.0012059531666404574 0.0066617789000810498 0 0 0
leaf_weight=1973.1498773545027 11.535845875740049 25.656152039766312 213.5570932328701 202.29840579628944 42.38350173830986 33.008927077054977 1137.0967397987843 159.75188013911247 31.812341541051865 10.630130559206007 166.2371052801609 9.2194449901580793 43.420487970113754 9.3379199206829053 33.587904810905457 20.550200670957565 24.545493125915527 9.3101208508014661 54.870820015668869
leaf_count=7635 41 77 776 652 145 118 3181 481 110 33 617 31 144 33 112 71 83 31 186
internal_value=0 0.0344455 -0.0217071 0.0137242 -0.00541269 -0.0246044 0.042367 0.0169144 -0.0104853 0.011066 -0.0249865 0.00201716 0.00267004 -0.0115528 0 0.00113299 0.00451864 -0.000338731 0
internal_weight=0 1625.65 2586.31 462.9 404.602 2181.71 1162.75 372.68 254.707 212.929 2139.39 149.894 140.675 222.895 90.2194 56.6315 45.0957 42.319 97.2543
internal_count=14557 4731 9826 1473 1425 8401 3258 1166 919 685 8252 506 475 809 307 195 154 149 331
is_linear=0
shrinkage=0.03178


Tree=24
num_leaves=16
num_cat=0
split_feature=9 9 9 4 9 4 2 9 2 2 4 2 9 9 9
split_gain=3457.23 169.195 163.139 27.4852 20.554 15.8402 8.58598 2.65023 1.86883 1.36799 1.06827 0.616592 0.527513 0.433353 0.175783
threshold=0.38991600275039678 0.8623567819595338 0.043028729036450393 0.43996216356754309 0.15743111819028857 0.22499735653400424 0.24000973254442218 0.7057434916496278 0.68129819631576549 0.01401594188064337 0.59826830029487621 0.0047445162199437627 0.80695009231567394 0.64439088106155407 0.4449876099824906
decision_type=2 2 2 2 2 2 2 2 2 2 2 2 2 2 2
left_child=2 3 -1 6 -4 9 7 -2 12 -3 11 -5 14 -12 -8
right_child=1 5 4 10 -6 -7 8 -9 -10 -11 13 -13 -14 -15 -16
leaf_value=-0.031381918929003674 0.010935230257048954 0.032028627402590486 -0.017110606472528593 0.0052712000761281162 -0.0036106405005253612 0.0047773300883901726 0 0.01986115532462494 0 0.023015393382267206 -0.0052744627382455651 0 0 0 0.0082636298836088161
leaf_weight=1944.8278833627701 236.67526856064796 1496.1889883577824 284.26267838478088 19.05992266535759 272.12485107779503 46.456905007362366 14.883120864629744 355.33950704336166 25.553287923336029 312.77215638756752 41.450963050127029 52.9994977414608 12.347060263156889 14.525394082069395 98.24532762169838
leaf_count=5608 633 4101 798 51 741 125 40 955 69 847 112 142 33 39 263
internal_value=0 0.0246712 -0.0269837 0.0125394 -0.0110167 0.0301774 0.0148655 0.0168301 0.00541652 0.0306932 0 0.00129684 0.00700465 -0.0038348 0.00764516
internal_weight=0 2726.5 2501.22 871.079 556.388 1855.42 743.044 592.015 151.029 1808.96 128.036 72.0594 125.476 55.9764 113.128
internal_count=14557 7410 7147 2337 1539 5073 1993 1588 405 4948 344 193 336 151 303
is_linear=0
shrinkage=0.03178


Tree=25
num_leaves=25
num_cat=0
split_feature=3 2 3 3 2 2 2 2 3 11 2 3 11 2 2 11 2 2 2 11 2 3 2 2
split_gain=837.907 1313.05 77.725 76.5148 68.2461 39.0581 34.3237 19.9988 10.5488 7.75776 5.19937 2.45284 1.58263 0.674318 1.19263 0.585345 0.525328 0.524972 0.416941 0.358723 0.21071 0.10949 0.0446611 0.00763484
threshold=0.52865114808082592 0.3907934725284577 0.22305261343717578 0.84808623790740978 0.89402171969413768 0.071234986186027541 0.08516246080398561 0.057210994884371764 0.76669234037399303 0.84466591477394115 0.01401594188064337 0.93975511193275463 0.34095585346221929 0.88256770372390758 0.59560608863830578 0.13375244289636615 0.00302181497681886 0.53152933716773998 0.050859931856393821 0.8708673119544984 0.95163482427597057 0.35961174964904791 0.90558767318725597 0.44559830427169805
decision_type=2 2 2 2 2 2 2 2 2 2 2 2 2 2 2 2 2 2 2 2 2 2 2 2
left_child=1 2 7 5 12 8 -4 -1 10 20 16 -5 -3 14 17 -8 -2 23 -10 -16 -6 -17 -11 -14
right_child=3 4 6 11 9 -7 15 -9 18 22 -12 -13 13 -15 19 21 -18 -19 -20 -21 -22 -23 -24 -25
leaf_value=0.042438779591240636 0 0.0048277284383596714 0.021770177791572656 -0.016138291624419307 -0.002755411417491953 -0.018900308843105437 0 0.026489212846237793 -0.0069933580557893079 0 -0.0018836020388453788 -0.02304586846157012 0 0.00070571163112242031 -0.0042949945576564582 0 0.0079732115701622065 0.00416298986851763 0 0 0 -0.0097586907801449924 -0.018643461329077068 -0.00045243050626513965
leaf_weight=760.92008033394814 46.899017304182053 49.254847228527069 190.52889892458916 482.43341521918774 31.105747640132904 154.02077986299992 11.697807312011717 243.89280077815056 146.90279173851013 10.26950493454933 60.792752668261528 757.05542282760143 16.250775218009949 15.687275558710096 127.04201927781105 11.477815955877306 133.7675651460886 22.382793217897415 10.638499394059179 48.626190572977066 23.394232094287872 17.540540516376495 715.1626709997654 29.459700882434845
leaf_count=2124 161 161 586 1881 110 587 39 723 537 38 216 3078 55 55 444 40 453 76 41 172 83 65 2731 101
internal_value=0 0.0126495 0.0350056 -0.0162068 -0.0126207 -0.00574217 0.0159967 0.0390143 0 -0.017582 0.0037382 -0.0206442 0 -0.000983789 -0.0019193 -0.00598163 0.00670655 0 -0.00657476 -0.00340565 -0.00116897 -0.00793106 -0.0185109 0
internal_weight=0 2324.69 1236.06 1792.51 1088.64 553.021 231.245 1004.81 399.001 779.932 241.459 1239.49 308.704 259.449 243.761 40.7162 180.667 68.0933 157.541 175.668 54.5 29.0184 725.432 45.7105
internal_count=14557 7603 3577 6954 4026 1995 730 2847 1408 2962 830 4959 1064 903 848 144 614 232 578 616 193 105 2769 156
is_linear=0
shrinkage=0.03178


Tree=26
num_leaves=17
num_cat=0
split_feature=8 14 14 8 14 14 8 8 13 8 13 14 8 13 8 13
split_gain=2935.84 180.573 165.415 17.6122 16.3285 11.1083 5.11619 3.01326 2.45035 2.21338 1.10544 0.64064 0.251367 0.244675 0.136831 0.000365111
threshold=0.24185834825038913 0.81270295381546032 0.045696126297116287 0.96420431137084972 0.16696789860725406 0.27540740370750433 0.069362219423055663 0.065476067364215865 0.0038979535456746821 0.21042057126760486 0.66353958845138561 0.82862287759780895 0.053507559001445777 0.89854958653450023 0.073643568903207793 0.0052117870654910812
decision_type=2 2 2 2 2 2 2 2 2 2 2 2 2 2 2 2
left_child=2 5 6 -3 -4 10 -1 11 -7 14 15 12 -6 -12 -9 -2
right_child=1 3 4 -5 7 8 -8 9 -10 -11 13 -13 -14 -15 -16 -17
leaf_value=-0.024850420737275537 0 0.031405831031347649 -0.0091476587371090729 0.044263751746114327 -0.0036971938329855895 0 -0.0062523900234348929 0 0.016898005765160103 0 0.0061092529598627083 0 0 0 0.0070446631429938577 -9.0730566470166327e-05
leaf_weight=2071.7652085721493 9.4353711605072004 436.95873728394508 245.41605150699615 779.62731033563614 66.995731115341187 12.58932989835739 51.280733078718185 10.169880509376524 258.30429250001907 24.57031324505806 28.941336125135422 9.8988454043865186 11.423615723848341 12.45779839158058 115.555568754673 36.583590358495712
leaf_count=8170 33 1240 891 2136 235 40 187 35 796 81 93 32 39 41 384 124
internal_value=0 0.0341379 -0.0206957 0.0400532 -0.00336825 0.0130512 -0.0245225 0.00185833 0.0162418 0.004876 0.000491044 -0.00114756 -0.00298935 0.00479265 0.00669532 0
internal_weight=0 1574.9 2607.08 1216.59 484.03 358.312 2123.05 238.614 270.894 150.296 87.4181 88.3182 78.4193 41.3991 125.725 46.019
internal_count=14557 4503 10054 3376 1697 1127 8357 806 836 500 291 306 274 134 419 157
is_linear=0
shrinkage=0.03178


Tree=27
num_leaves=13
num_cat=0
split_feature=0 0 0 0 11 0 0 11 11 0 11 11
split_gain=3331.61 184.476 108.275 11.5344 8.52889 7.67167 2.71779 2.07551 0.622566 0.0370684 0.211841 0.634692
threshold=0.31089760363101965 0.88231742382049572 0.037147726863622672 0.66635128855705272 0.068202331662178053 0.20240055024623874 0.38914768397808081 0.43507061898708349 0.0017036494100466373 0.34633524715900427 0.0091585218906402605 0.4601369053125382
decision_type=2 2 2 2 2 2 2 2 2 2 2 2
left_child=2 3 -1 6 -3 -4 9 8 -5 10 -2 -12
right_child=1 4 5 7 -6 -7 -8 -9 -10 -11 11 -13
leaf_value=-0.030680990316389611 0 0.030424968246819582 -0.015550382682947703 0 0.015113304616100562 -0.0035770684215313516 0.0076570050222820847 0 0.015903095227459078 0 0.0058644967693135333 0
leaf_weight=1918.2397370636463 11.832613319158552 1741.6009213328362 385.74928089976311 15.921343028545378 118.82913291454315 125.45291429758072 318.5400213599205 22.781875520944595 449.05764824151993 42.143043905496597 17.736933410167698 12.486199498176573
leaf_count=5608 32 4809 1083 43 321 342 855 61 1207 114 48 34
internal_value=0 0.0238658 -0.0271231 0.0114433 0.0296266 -0.0131067 0.00631964 0.015089 0.0155907 0 0.000863009 0.0025575
internal_weight=0 2750.93 2429.44 890.5 1860.43 511.202 402.739 487.761 464.979 84.1988 42.0557 30.2231
internal_count=14557 7524 7033 2394 5130 1425 1083 1311 1250 228 114 82
is_linear=0
shrinkage=0.03178


Tree=28
num_leaves=29
num_cat=0
split_feature=4 6 4 2 6 2 2 6 4 6 2 4 6 2 2 4 2 4 2 2 2 6 4 4 6 4 2 6
split_gain=2100.15 161.953 95.5647 53.2607 39.0799 12.6542 8.43209 9.07272 7.89161 7.18477 4.92332 3.76654 10.7922 3.70656 3.62682 1.86919 1.11726 1.01535 1.63472 0.635696 0.489249 0.487596 0.376839 0.367727 0.302849 0.170896 0.14499 0.00844619
threshold=0.25742083787918096 0.30388882756233221 0.070966806262731566 0.20811089128255847 0.82060113549232494 0.83608531951904308 0.90558767318725597 0.58341601490974437 0.87335181236267101 0.72862508893013012 0.3907934725284577 0.020471533760428432 0.0014433672768063845 0.089732728898525252 0.050859931856393821 0.42159083485603338 0.8142773211002351 0.36337329447269445 0.0090334583073854464 0.95993027091026317 0.0036309340503066783 0.00071650740574114035 0.21764273196458819 0.36337329447269445 0.80149111151695263 0.21054267883300784 0.70487323403358471 0.8892970383167268
decision_type=2 2 2 2 2 2 2 2 2 2 2 2 2 2 2 2 2 2 2 2 2 2 2 2 2 2 2 2
left_child=2 3 11 8 6 -5 7 10 -2 13 -4 -1 21 15 -6 17 22 18 -3 -8 27 -13 26 -22 25 -9 -12 -11
right_child=1 9 4 5 14 -7 19 24 -10 20 16 12 -14 -15 -16 -17 -18 -19 -20 -21 23 -23 -24 -25 -26 -27 -28 -29
leaf_value=-0.023275099099788327 0.030053100137223284 0.0085694379352734239 0.012321462117165475 0.01940357530589942 -0.015773825326478304 0 0 -0.0043038432992613951 0.041636358348274602 0.00065986287100954573 0 0 -0.018800592932430006 0 0 0.014280858721086469 0.0052048118955862147 0 0 -0.010296202151237034 0 -0.0049384869706238293 0 -0.0054825961488907671 0 0 -0.0046519226620151035 0
leaf_weight=961.96040324866772 413.67014840245247 33.000106424093246 99.44954788684845 141.99388778209686 258.87325464189053 34.183868765830994 34.67005980014801 71.789272144436836 657.61863330006599 11.380217611789705 32.876928180456161 22.943097978830338 904.75328515470028 13.303511410951613 14.912160798907278 79.591797798871994 33.106024771928787 25.331856399774551 15.540961325168608 48.050674080848694 21.635164827108383 69.083550989627838 11.986589342355726 26.855783730745316 12.826864540576933 14.793951094150541 16.564121931791306 8.4389981925487501
leaf_count=3887 1197 110 334 435 1013 116 125 261 1804 40 112 88 3591 44 57 249 115 84 52 181 78 265 40 92 47 52 57 31
internal_value=0 0.0301965 -0.0170618 0.0347616 -0.00595535 0.0154074 0.000221825 0.00326374 0.0376146 0.00477943 0.00749968 -0.0206032 -0.0176532 0.0084943 -0.014922 0.010062 0 0.00206452 0.00492282 -0.00765059 -0.00156972 -0.0037274 -0.000361729 -0.00346983 -0.00305341 -0.00371638 -0.00259993 0
internal_weight=0 1482.54 2608.64 1247.47 649.899 176.178 376.114 293.393 1071.29 235.078 193.983 1958.74 996.78 166.768 273.785 153.465 94.5337 73.8729 48.5411 82.7207 68.3102 92.0266 61.4276 48.4909 99.4101 86.5832 49.4411 19.8192
internal_count=14557 4332 10225 3552 2394 551 1324 1018 3001 780 658 7831 3944 539 1070 495 324 246 162 306 241 353 209 170 360 313 169 71
is_linear=0
shrinkage=0.03178


Tree=29
num_leaves=25
num_cat=0
split_feature=11 11 5 5 11 11 11 3 3 5 5 5 11 11 5 5 5 5 3 3 3 3 5 5
split_gain=2688.97 183.648 147.988 16.8204 15.9221 14.7673 5.86619 3.87773 3.70577 3.60062 2.67711 2.23774 1.93627 1.86803 1.65476 2.2322 1.04022 1.58249 0.528877 0.420801 0.13058 0.129571 0.104542 0.0539643
threshold=0.34095585346221929 0.054891152307391174 0.80336335301399242 0.22679489850997928 0.13375244289636615 0.59367695450782787 0.92980802059173595 0.007299095857888461 0.32745972275733953 0.05579600669443608 0.36728578805923467 0.32823690772056585 0.56342273950576793 0.19590173661708835 0.12028893083333971 0.14175327122211459 0.083958767354488387 0.31534911692142492 0.0043278350494802007 0.0078768180683255213 0.0099372351542115229 0.71794936060905468 0.43883647024631506 0.12556625902652743
decision_type=2 2 2 2 2 2 2 2 2 2 2 2 2 2 2 2 2 2 2 2 2 2 2 2
left_child=1 3 5 9 7 11 -4 -3 10 -1 19 20 18 16 -9 -16 -10 -18 -13 -6 -2 -22 -15 -21
right_child=2 4 6 -5 8 -7 -8 14 13 -11 -12 12 -14 22 15 -17 17 -19 -20 23 21 -23 -24 -25
leaf_value=-0.024664482323644488 0.0018019465396375061 0 0.028165509769805849 0 0.0031746273960723938 0.020406052704905552 0.041347128925818558 -0.013014545768903355 0 -0.014489048660210682 0.013822317914618487 0 0 -0.0037010318687088527 0.0024479623763146376 -0.0055801462784285496 0.009477395441120166 0 0.010046170596794165 0 -0.0024240328821969444 0 0 -0.0013812680867022551
leaf_weight=1924.1673459708691 15.115036427974699 50.889579296112061 240.478978484869 31.793272405862808 34.02225735783577 219.85482177138329 915.34757545590401 97.451340764760971 8.5834203660488111 182.87754528224468 46.272497236728668 11.346456497907637 12.287098616361616 56.504452899098396 11.383626103401182 77.34348526597023 33.590348392724991 12.735648810863493 85.004968672990799 11.581253975629808 23.614360332489014 14.517137527465819 11.923313200473784 20.355591654777527
leaf_count=7771 49 176 675 111 114 653 2486 366 32 690 145 35 38 197 41 272 118 43 267 41 79 50 39 69
internal_value=0 -0.0196378 0.0332165 -0.0235922 -0.00122283 0.014739 0.0389974 -0.00723417 0.00403222 -0.0239372 0.00799894 0.00523308 0.00769452 0 -0.00928336 -0.00233155 0.00418552 0.00628805 0.00921224 9.30371e-05 0 -0.00110066 -0.00319201 0
internal_weight=0 2611.47 1537.57 2138.84 472.637 381.74 1155.83 237.068 235.569 2107.04 112.232 161.885 108.639 123.337 186.178 88.7271 54.9094 46.326 96.3514 65.9591 53.2465 38.1315 68.4278 31.9368
internal_count=14557 10225 4332 8572 1653 1171 3161 855 798 8461 369 518 340 429 679 313 193 161 302 224 178 129 236 110
is_linear=0
shrinkage=0.03178


Tree=30
num_leaves=48
num_cat=0
split_feature=11 14 8 14 14 14 11 11 8 11 14 11 14 8 8 14 8 14 8 14 8 8 14 14 11 11 8 14 8 14 11 8 11 11 8 8 8 8 8 11 8 8 11 8 11 11 8
split_gain=1244.58 371.609 61.9229 39.5582 38.88 18.8424 11.8605 5.02385 3.50378 3.0137 2.19962 2.63568 1.32573 1.04255 0.960718 0.868356 3.76892 0.748174 0.43675 0.407029 0.3703 0.864933 4.06527 3.30336 2.53292 1.58036 1.01533 0.710182 0.507825 1.03829 0.492577 0.442353 0.416427 0.362217 0.864874 0.306188 0.281892 0.207221 1.01441 0.194801 0.143855 0.127064 0.175151 0.490858 0.0372378 0.0022415 2.56214e-05
threshold=0.43507061898708349 0.002743575489148498 0.0024960078299045567 0.88096964359283458 0.0014311369741335513 0.77624067664146434 0.0053484130185097465 0.072154194116592421 0.0011931103654205801 0.59367695450782787 0.021855000406503681 0.19590173661708835 0.0050016597378999004 0.0012865959433838727 0.014640388544648887 0.0033871479099616413 0.0046109140384942302 0.0042455848306417474 0.00396201340481639 0.2379526570439339 0.0038639374542981391 0.0089025739580392855 0.018979750573635105 0.018016751855611805 0.0093432771973311918 0.023067411966621879 0.1971915885806084 0.0072050252929329881 0.022224581800401214 0.0081293303519487398 0.02555528283119202 0.014053963124752046 0.010791151318699123 0.34095585346221929 0.47795158624649053 0.012282689101994039 0.027009395882487301 0.0063895711209625014 0.0046109140384942302 0.3604379296302796 0.56127864122390758 0.050088459625840194 0.018491721712052826 0.030891132541000847 0.011304115876555445 0.16393005102872851 0.09840810671448709
decision_type=2 2 2 2 2 2 2 2 2 2 2 2 2 2 2 2 2 2 2 2 2 2 2 2 2 2 2 2 2 2 2 2 2 2 2 2 2 2 2 2 2 2 2 2 2 2 2
left_child=1 4 -3 9 -1 6 12 15 -6 -2 45 14 17 -10 -12 16 -8 18 -4 36 27 22 25 28 -25 -22 30 -17 29 31 41 -23 -30 34 -21 -32 -13 38 -14 -38 -35 42 43 -26 -31 -9 -43
right_child=3 2 5 -5 8 -7 7 10 13 -11 11 19 37 -15 -16 20 -18 -19 -20 33 21 23 -24 24 26 -27 -28 -29 32 44 35 -33 -34 40 -36 -37 39 -39 -40 -41 -42 46 -44 -45 -46 -47 -48
leaf_value=0.026339685804845567 -0.0057050142041381218 0.017837896821697067 0 -0.029030162511367721 0.023022463464082047 -0.015572493373128169 0 0.00020849679752181307 0 -0.017312010724755432 0 0 0.0049818559355646582 0.01219454837044965 -0.0069612225552744197 0 0.010353053504244543 0 0.0048767277641867703 0.0045860580646267003 -0.0049917307367270871 0.0048285233042502373 0.0038871666301346875 0.0054994860368583797 -0.0035096018752675375 0 0 0.0048954593086682242 0 0 0 0 0.0064804709982526206 -0.0020141596644337048 0 -0.0043637188125393838 -0.0037690871716548066 0.012512505359441687 0 0 0 2.9213325507938047e-05 0 0 -0.00070187670992435849 0 0
leaf_weight=890.63538825511932 102.58906066417694 197.96639585494995 37.877393692731857 1032.5054621994495 99.446273028850555 71.177117973566055 26.026790827512741 43.866283237934113 14.208691358566282 260.95591884851456 18.112023383378983 12.62503197789192 49.967572778463364 488.20428663492203 233.82030543684959 60.40360215306282 36.196040600538254 29.946906685829163 52.784817188978195 50.697538614273071 211.22576662898064 59.067720025777817 63.638217598199844 28.090457767248154 56.817702651023865 44.482850939035416 37.530807048082352 36.460230827331543 20.117524355649948 26.235371202230453 15.850010722875593 36.37230184674263 77.716684609651566 27.691807687282562 15.733721405267714 197.7078965306282 55.07146480679512 68.52525520324707 21.620735347270966 16.903959214687347 12.41845667362213 22.110300630331039 48.808062136173248 15.353246897459028 72.080744206905365 19.709918349981308 12.182482600212095
leaf_count=2494 284 554 106 3078 279 201 73 122 40 742 50 35 140 1363 652 170 100 84 147 138 598 165 179 78 161 125 104 102 56 73 45 102 217 76 43 559 154 190 61 47 34 62 138 43 204 55 34
internal_value=0 0.00951337 0.0012166 -0.0255728 0.0217607 -0.000359771 0.000148921 -0.000716851 0.0143879 -0.0147822 -0.00337976 -0.0042373 0.0064358 0.0119376 -0.00643078 0.00025083 0.00367897 0.0014039 0.00319536 -0.000180005 0 -0.000140111 -0.00161234 0.000241182 -0.00119173 -0.00383013 -0.00224472 0.0018337 0.00302883 0.000609882 -0.00287404 0.00328984 0.00548301 0 0.00221274 -0.00403567 -0.00212105 0.00907827 0.00229255 -0.00295934 -8.672e-05 0 -0.000996668 -0.00194864 -0.000135129 0 0
internal_weight=0 3733.49 2240.99 1396.05 1492.49 2043.03 1971.85 1711.13 601.859 363.545 506.651 443.074 260.723 502.413 251.932 1204.47 62.2228 120.609 90.6622 191.142 1142.25 1045.39 319.347 726.041 434.451 255.709 406.361 96.8638 291.59 193.756 368.83 95.44 97.8342 106.542 66.4313 213.558 84.6005 140.114 71.5883 71.9754 40.1103 155.272 120.979 72.1709 98.3161 63.5762 34.2928
internal_count=14557 10453 6277 4104 4176 5723 5522 4794 1682 1026 1406 1229 728 1403 702 3388 173 337 253 527 3215 2943 902 2041 1224 723 1146 272 817 544 1042 267 273 291 181 604 236 391 201 201 110 438 342 204 277 177 96
is_linear=0
shrinkage=0.03178


Tree=31
num_leaves=22
num_cat=0
split_feature=0 5 0 0 5 9 5 5 9 9 0 0 9 5 9 9 9 0 5 9 5
split_gain=784.111 1030.84 108.687 67.0243 60.9299 48.044 21.7235 15.7275 2.29021 1.8082 1.25569 1.01896 0.929197 0.660116 0.16447 0.161287 0.134371 0.0982498 0.0616842 0.00920923 0.000699513
threshold=0.59319645166397106 0.36728578805923467 0.23986746370792392 0.89351236820220958 0.92235764861106884 0.034042194485664375 0.77033346891403209 0.16616870462894442 0.73879408836364757 0.78644758462905895 0.049237431958317764 0.55811423063278209 0.0020361791830509905 0.91031029820442211 0.60636657476425182 0.0097445407882332819 0.24881054461002353 0.97435379028320324 0.90108910202980053 0.046749033033847816 0.86635932326316845
decision_type=2 2 2 2 2 2 2 2 2 2 2 2 2 2 2 2 2 2 2 2 2
left_child=1 2 10 8 5 6 -3 9 14 11 -1 -4 13 -8 16 18 -2 -5 -14 -7 -17
right_child=3 4 7 17 -6 19 12 -9 -10 -11 -12 -13 15 -15 -16 20 -18 -19 -20 -21 -22
leaf_value=0.037529605900859714 0 0.014840246660561848 0.014957068514870336 -0.016733497421734085 -0.016679063439276151 0 -0.0063182732943428618 -0.0076452494782720546 -0.0077055735570993617 0 0.025500260205559937 0 0.0019255613827930669 0 0 0 -0.0026611159852320859 -0.023070896600676974 0 -0.014519762083167213 -0.00095451607514228745
leaf_weight=834.02480837702751 9.1456314623355848 145.56712552905083 172.34009289741516 505.76293179392815 652.87805382907391 17.418786719441414 37.706144154071808 25.619380950927734 257.11829474568367 17.307010620832443 217.72715562582016 20.61462065577507 46.725576832890511 10.202667176723478 99.643408209085464 14.568122833967211 82.950349122285843 695.00498302280903 16.002720952033997 167.65104505419731 16.16297459602356
leaf_count=2293 31 459 534 2052 2564 61 136 95 976 62 624 67 163 38 355 51 291 2964 58 623 60
internal_value=0 0.0116355 0.0310058 -0.0167335 -0.0104218 -0.00120598 0.00641735 0.00983899 -0.00549175 0.0131077 0.0354481 0.0139883 -0.0012343 -0.00455885 -0.00131116 0 -0.00225453 -0.0207016 0.0014118 -0.0138483 -0.000743047
internal_weight=0 2412.52 1287.63 1649.63 1124.88 472.005 286.935 235.881 448.858 210.262 1051.75 192.955 141.368 47.9088 191.739 93.4594 92.096 1200.77 62.7283 185.07 30.7311
internal_count=14557 7888 3675 6669 4213 1649 965 758 1653 663 2917 601 506 174 677 332 322 5016 221 684 111
is_linear=0
shrinkage=0.03178


Tree=32
num_leaves=25
num_cat=0
split_feature=2 2 2 8 8 8 0 8 0 2 0 0 8 0 8 0 2 0 0 8 8 0 0 0
split_gain=2606.49 160.921 136.473 25.9659 9.72881 6.28771 5.05318 1.98871 1.85108 1.47232 1.11863 0.794742 0.651624 1.25285 0.393323 0.0517283 0.0441932 0.0234745 0.120983 0.0200572 0.018017 0.0029337 0.00244552 0.00226068
threshold=0.29835577309131628 0.057210994884371764 0.89402171969413768 0.073643568903207793 0.28021349012851721 0.083671897649765029 0.016755037941038612 0.40073806047439581 0.21926067769527438 0.011535839643329384 0.38914768397808081 0.0017819260829128327 0.24185834825038913 0.75554239749908458 0.22499009966850284 0.87188011407852184 0.020191015675663952 0.0012545876670628788 0.0062301219440996656 0.18222107738256457 0.073643568903207793 0.79851612448692333 0.0035136877559125428 0.014729255810379984
decision_type=2 2 2 2 2 2 2 2 2 2 2 2 2 2 2 2 2 2 2 2 2 2 2 2
left_child=1 3 4 9 8 6 17 -4 11 -1 -6 -2 19 -14 16 -15 -5 -3 -19 22 -10 -21 -7 -24
right_child=2 5 7 14 10 12 -8 -9 20 -11 -12 -13 13 15 -16 -17 -18 18 -20 21 -22 -23 23 -25
leaf_value=-0.025252747074304187 0 0 0 0 0.021164638504134588 0 -0.0096247513814849729 0.038643502285162667 0.00035206322793233978 -0.018618963443593862 0.0071015206086549945 0.0094497280285881762 0.0060842060342081771 -0.0012121989863125291 0 0.00017335668902685556 -0.0040786495857734507 0.0018979898426839741 0 -0.00031041743877443172 -0.00063753895481761917 0 0.0011158369484709633 0
leaf_weight=1616.5105648636818 13.20935210585594 13.841636210680006 10.724056303501127 13.524106845259665 297.76104354858398 19.553096264600754 105.1016518175602 1084.9240999817848 11.605311393737791 455.70106315612793 65.57416832447052 53.403605848550797 73.690993309020996 26.963507831096649 22.075575739145279 10.341815263032911 44.449561640620232 32.28945529460907 12.583680689334868 22.537986934185028 30.515055865049362 10.477320611476896 11.876112937927244 54.123122215270996
leaf_count=6714 42 48 31 52 864 66 391 2933 41 1794 207 169 237 91 78 35 162 112 44 76 102 37 40 191
internal_value=0 -0.0198597 0.0321134 -0.0232675 0.0166193 -0.000613643 -0.00559921 0.0384317 0.00491915 -0.0239709 0.0193871 0.00792499 0.00215902 0.00384948 -0.00221788 0 -0.00354426 0 0.000668297 0 0 0 0.000464807 0.000553401
internal_weight=0 2545.64 1567.72 2152.26 472.069 393.38 163.816 1095.65 108.733 2072.21 363.335 66.613 229.564 110.996 80.0492 37.3053 57.9737 58.7148 44.8731 118.568 42.1204 33.0153 85.5523 65.9992
internal_count=14557 10168 4389 8800 1425 1368 595 2964 354 8508 1071 211 773 363 292 126 214 204 156 410 143 113 297 231
is_linear=0
shrinkage=0.03178


Tree=33
num_leaves=21
num_cat=0
split_feature=9 9 9 7 7 9 7 7 11 11 7 11 11 11 7 9 9 11 11 9
split_gain=2939.42 151.543 145.88 35.8413 23.8658 18.1977 4.31781 4.20396 2.16923 2.12804 1.61833 1.36189 1.08546 1.17682 0.785433 0.430141 0.24757 0.207149 0.0387799 0.0101878
threshold=0.38991600275039678 0.043028729036450393 0.8623567819595338 0.61634939908981334 0.099445976316928877 0.15743111819028857 0.39057488739490515 0.79811176657676708 0.67174360156059276 0.0021746344864368443 0.26418833434581762 0.92348381876945507 0.024758866988122467 0.013599902391433718 0.30719642341136938 0.4449876099824906 0.96756988763809215 0.76307445764541637 0.0085566234774887579 0.4811494648456574
decision_type=2 2 2 2 2 2 2 2 2 2 2 2 2 2 2 2 2 2 2 2
left_child=1 -1 3 10 -4 9 16 19 12 -3 -2 -11 13 18 -12 -9 -6 -10 -7 -5
right_child=2 5 4 7 6 8 -8 15 17 11 14 -13 -14 -15 -16 -17 -18 -19 -20 -21
leaf_value=-0.029804577385188227 0.016017808673368543 0 0.029333019498432818 0 0.015596731621938271 -0.003644408439143829 0 0 0.0022702972230761644 -0.017078490969890597 0 0 -0.0078510988519986512 0.0019674045873068228 0.0093772384220672713 -0.011430747895751223 0 0 0 0.00038888984907757828
leaf_weight=1866.6132518649101 529.73873567581177 13.344716340303419 1653.3421059548855 14.879565984010695 115.01472926139832 78.86523574590683 24.916514873504639 13.492225229740141 32.379479557275772 249.1362144947052 32.022487282752991 16.209457904100418 84.992173165082932 24.476607352495193 181.39881801605225 35.534712344408035 14.167322456836699 24.208155423402786 25.620088487863541 59.824716717004776
leaf_count=5608 1432 38 4653 40 314 215 67 37 89 713 86 47 233 67 486 96 39 67 70 160
internal_value=0 -0.0254336 0.0228505 0.011568 0.028073 -0.00999344 0.012501 -0.00280159 -0.00300266 -0.0157906 0.0142356 -0.0164123 -0.0046015 -0.000635119 0.00846454 -0.00960584 0.014709 0 -0.00314877 0
internal_weight=0 2415.85 2674.33 866.891 1807.44 549.232 154.099 123.731 270.542 278.69 743.16 265.346 213.954 128.962 213.421 49.0269 129.182 56.5876 104.485 74.7043
internal_count=14557 7147 7410 2337 5073 1539 420 333 741 798 2004 760 585 352 572 133 353 156 285 200
is_linear=0
shrinkage=0.03178


Tree=34
num_leaves=17
num_cat=0
split_feature=13 13 13 13 13 2 2 2 8 8 13 2 2 13 13 8
split_gain=1932.4 166.756 97.7176 21.2802 7.48122 6.27667 2.97753 2.76159 2.59591 2.57364 2.10211 1.64825 1.37788 0.536796 0.277868 0.0803345
threshold=0.35572208464145666 0.060121692717075355 0.82746362686157238 0.017173657193779949 0.13906149566173556 0.0049319355748593816 0.8142773211002351 0.89402171969413768 0.21042057126760486 0.0035408480325713758 0.15143886953592303 0.70487323403358471 0.90558767318725597 0.15143886953592303 0.33821497857570654 0.0015661288634873929
decision_type=2 2 2 2 2 2 2 2 2 2 2 2 2 2 2 2
left_child=1 3 6 -1 8 13 -2 9 -3 -7 -11 -4 -10 -6 -12 -15
right_child=2 4 11 -5 5 7 -8 -9 12 10 14 -13 -14 15 -16 -17
leaf_value=-0.022172187016092609 0.017889066644258805 -0.0063308759637934519 0.037043619052275344 -0.01349934411550378 0 0 0 0 0.0030021903358746086 0 0.010581076659802605 0 -0.0039906202369669888 0 0 -0.0039764795780898934
leaf_weight=1484.3280635029078 441.23488408327103 176.07071936130524 906.74906155467033 605.63887497782707 9.7266840338706952 15.222444474697111 20.673774927854538 23.35486575961113 58.634049758315086 16.317175880074501 138.3853250592947 10.009224504232405 41.341697931289673 17.929345116019249 9.41247910261154 63.653901532292366
leaf_count=6178 1355 665 2477 2394 37 53 70 85 203 56 466 31 158 67 31 231
internal_value=0 -0.0156762 0.0305692 -0.0198186 -7.1449e-05 0.00304086 0.0173075 0.00639336 -0.00409393 0.00779978 0.00901633 0.0368182 0 -0.00227056 0.0101688 -0.00342805
internal_weight=0 2660.02 1378.67 2089.97 570.049 294.002 461.909 202.692 276.046 179.337 164.115 916.758 99.9757 91.3099 147.798 81.5832
internal_count=14557 10624 3933 8572 2052 1026 1425 691 1026 606 553 2508 361 335 497 298
is_linear=0
shrinkage=0.03178


Tree=35
num_leaves=18
num_cat=0
split_feature=14 14 14 9 10 14 9 14 14 10 10 9 14 10 9 9 9
split_gain=2438.89 162.954 107.012 13.2966 9.79927 7.41113 6.91042 1.88075 1.30572 0.868813 1.88772 3.2763 0.51302 0.280666 0.112501 1.28329e-06 0.168874
threshold=0.27540740370750433 0.8988497555255891 0.045696126297116287 0.56102338433265697 0.8490300476551057 0.010548455175012352 0.017791728489100937 0.14191931486129764 0.16696789860725406 0.13069454580545428 0.024803684093058113 0.82682830095291149 0.11571560055017473 0.35812138020992285 0.0087640946730971354 0.77712681889534008 0.69702872633934032
decision_type=2 2 2 2 2 2 2 2 2 2 2 2 2 2 2 2 2
left_child=2 3 5 4 -2 -1 8 -8 12 10 15 -12 14 -3 -4 16 -5
right_child=1 13 6 9 -6 -7 7 -9 -10 -11 11 -13 -14 -15 -16 -17 -18
leaf_value=-0.025052075504299175 0.018104588628383458 0.036726181839953118 0 0 0 -0.017022084326793294 -0.010114272497271334 -0.0010346110990297199 0.0049391303209817047 0 0.01369789587415538 0 -0.0039503212700542339 0.013032155633100773 0.0024133614090724852 5.2897132835582679e-06 -0.0028884592006807245
leaf_weight=1590.8985886275768 386.08348029851913 1099.5380192995071 53.818035185337067 19.517201811075214 36.842565953731537 414.49159917235374 164.32297065854073 93.382532224059105 42.58684766292572 9.4774535298347455 27.117972612380981 10.022103309631346 30.08809158205986 39.231808960437775 11.297258466482161 38.109020948410034 12.231654286384581
leaf_count=6748 1138 2961 193 62 124 1653 615 331 141 33 89 35 105 117 40 131 41
internal_value=0 0.02926 -0.0205706 0.0139424 0.0166376 -0.0235696 -0.00468998 -0.00772268 0 0.00207312 0.00350254 0.00855595 -0.000876921 0.0361864 0 0 0
internal_weight=0 1678.17 2400.89 539.401 422.926 2005.39 395.496 257.706 137.79 116.475 106.998 37.1401 95.2034 1138.77 65.1153 69.8579 31.7489
internal_count=14557 4731 9826 1653 1262 8401 1425 946 479 391 358 124 338 3078 233 234 103
is_linear=0
shrinkage=0.03178


Tree=36
num_leaves=16
num_cat=0
split_feature=6 6 6 6 6 2 6 10 2 6 2 10 10 10 6
split_gain=2859.53 187.684 96.6383 29.1205 7.17713 4.66529 3.76687 2.42849 2.51506 1.07169 0.329385 0.998233 0.465208 0.338734 0.127771
threshold=0.23544243723154071 0.72862508893013012 0.044258575886487968 0.9588870406150819 0.41907054185867315 0.15570604056119922 0.16349852830171588 0.61423844099044811 0.68129819631576549 0.71257066726684581 0.050859931856393821 0.020308225415647033 0.59144130349159252 0.16104499995708468 0.18750601261854175
decision_type=2 2 2 2 2 2 2 2 2 2 2 2 2 2 2
left_child=2 4 -1 -3 10 -5 -4 8 9 -6 12 -12 13 -2 -8
right_child=1 3 6 5 7 -7 14 -9 -10 -11 11 -13 -14 -15 -16
leaf_value=-0.028749428338582721 0 0.020351810781550059 -0.012589857320704563 0.030226515598745691 0.010142548990414564 0 0 0 0 0 0.0011975755431011413 -0.004001697266991025 0 0.0037182524796683623 -0.0031509439471392449
leaf_weight=1934.626472979784 12.681715995073317 766.59655520319939 302.47160866856575 1322.4912003874779 323.34020817279816 12.122702240943907 41.543734163045883 18.530298322439194 20.263647943735123 19.677887797355652 32.76874703168869 51.076894640922546 39.850308954715729 74.787719428539276 62.540320783853531
leaf_count=5893 34 2109 855 3786 868 33 114 50 55 53 89 139 108 200 171
internal_value=0 0.0222164 -0.0257205 0.0266893 0.00588005 0.0300314 -0.0105327 0.00847776 0.00905868 0.00969671 0.000114294 0 0.00157344 0.00290127 -0.0022597
internal_weight=0 2694.19 2341.18 2101.21 592.977 1334.61 406.556 381.812 363.282 343.018 211.165 83.8456 127.32 87.4694 104.084
internal_count=14557 7524 7033 5928 1596 3819 1140 1026 976 921 570 228 342 234 285
is_linear=0
shrinkage=0.03178


Tree=37
num_leaves=23
num_cat=0
split_feature=7 7 7 12 7 7 12 7 12 9 12 9 7 7 9 12 9 9 7 12 7 12
split_gain=1863.28 151.414 93.9224 13.5852 10.4869 6.22492 5.1291 5.11339 4.04957 3.61667 2.71994 2.65566 2.12684 1.37646 1.14424 0.733379 0.336506 0.168522 0.303068 0.066203 0.0444527 0.0151233
threshold=0.41060529649257665 0.046494694426655776 0.76759690046310436 0.83090126514434826 0.97099429368972789 0.12786936759948733 0.7367747724056245 0.012366943992674352 0.0040935715660452851 0.0019826266216114168 0.77177762985229503 0.7251105308532716 0.29378847777843481 0.049873325973749168 0.0021829839097335939 0.6534252166748048 0.97840920090675365 0.88883420825004589 0.27615231275558477 0.74874117970466625 0.066046401858329787 0.68469902873039257
decision_type=2 2 2 2 2 2 2 2 2 2 2 2 2 2 2 2 2 2 2 2 2 2
left_child=1 7 6 5 15 8 9 -1 20 -2 -10 14 13 -5 -7 -4 -15 18 19 -13 -3 -19
right_child=2 3 4 12 -6 11 -8 -9 10 -11 -12 17 -14 16 -16 -17 -18 21 -20 -21 -22 -23
leaf_value=-0.023050943080179891 0 0 0.028149390188499504 0 0.038781079523043854 0 0 -0.016781625997876769 -0.0097339449525658834 0.015534429705719062 0 -0.0041624857746518831 0 -0.011020793785194462 0.0060791940459802487 0 0 0.00093816376283532062 0 0 0.00092476780940299271 0
leaf_weight=1160.6599222421646 26.046162307262421 29.857951089739799 560.26163005828857 13.255730047821997 531.01845693588257 36.488317504525185 43.828931748867035 690.23633646965027 104.00948272645473 274.70561143755913 18.014514833688736 23.137511879205704 17.119505167007446 198.70264811813831 163.04096040129662 10.757517248392103 8.3366590291261655 9.1428998708724993 22.290617376565933 9.4746947884559614 44.28667901456356 12.074220418930052
leaf_count=4981 82 114 1563 55 1425 127 147 2850 388 854 69 83 62 786 548 33 35 33 79 35 162 46
internal_value=0 -0.0161179 0.0288952 -0.00324024 0.0335555 0 0.0129802 -0.0209069 -0.00430959 0.0144621 -0.00778142 0.00296241 -0.00930198 -0.0101198 0.00499024 0.0278638 -0.010732 0 -0.00164218 -0.00341572 0 0
internal_weight=0 2560.13 1446.62 709.232 1102.04 471.818 344.581 1850.9 196.169 300.752 122.024 275.649 237.415 220.295 199.529 571.019 207.039 76.1199 54.9028 32.6122 74.1446 21.2171
internal_count=14557 10453 4104 2622 3021 1684 1083 7831 733 936 457 951 938 876 675 1596 821 276 197 118 276 79
is_linear=0
shrinkage=0.03178


Tree=38
num_leaves=23
num_cat=0
split_feature=12 1 12 1 1 1 12 12 4 1 4 4 4 4 4 1 4 12 1 4 12 4
split_gain=1173.53 832.552 139.786 195.422 50.4174 29.1141 25.2029 9.33538 8.88642 4.31742 1.67901 1.23156 0.598881 0.440799 0.352387 0.322476 0.319443 0.204271 0.198869 0.173935 0.0244487 0.0663514
threshold=0.030076356604695324 0.55686694383621227 0.69882121682167064 0.099832359701395049 0.92520198225975048 0.059689965099096305 0.34631301462650305 0.93118721246719371 0.19612417370080951 0.016907335259020332 0.68952691555023204 0.067714944481849684 0.59826830029487621 0.18074651807546618 0.90607860684394848 0.87018984556198131 0.016728457994759086 0.47596432268619543 0.82144081592559826 0.16177590191364291 0.53704839944839489 0.024535375647246841
decision_type=2 2 2 2 2 2 2 2 2 2 2 2 2 2 2 2 2 2 2 2 2 2
left_child=1 5 3 6 12 -1 -2 -4 11 16 -6 -5 15 -13 18 19 -8 -11 -14 -3 21 -18
right_child=2 4 7 8 10 -7 9 -9 -10 17 -12 13 14 -15 -16 -17 20 -19 -20 -21 -22 -23
leaf_value=0.036615250285482535 0.019554291446175844 0 -0.015230282036702427 0 0 0.020696406686989546 0.0087389789393151375 -0.023860546225846824 -0.020229652022916086 0 -0.019279413526177 -0.0067191859062125329 0 0 0 0 0 -0.0050205013485658404 -0.0029379102757976475 0.0046426603244889494 0 0.0019197729133791815
leaf_weight=977.67722028493881 210.19490794837475 9.7267934232950193 408.67252483963966 10.862080454826353 15.733435094356535 252.36911991238594 40.501741275191307 996.26426422595978 396.07322834432125 15.411379709839819 364.25979793071747 53.259070217609406 47.135998249053955 9.8587282598018628 35.896803915500641 9.4968198239803296 9.9575154483318347 40.968611732125282 57.390558376908302 42.671316206455231 18.477952197194099 16.671516075730324
leaf_count=2616 611 29 1653 36 55 717 133 4389 1593 52 1473 200 160 37 131 31 32 154 204 135 63 53
internal_value=0 0.01888 -0.0154889 -0.00469663 -0.012056 0.0336724 0.0127 -0.0215972 -0.0181505 0.000684552 -0.0187687 -0.00363531 0 -0.00571542 -0.000252514 0.00291419 0.00601778 -0.00399967 -0.00180026 0.00389831 0 0.000841865
internal_weight=0 1812.36 2227.17 822.237 582.312 1230.05 352.184 1404.94 470.053 141.989 379.993 73.9799 202.318 63.1178 140.423 61.8949 85.6087 56.38 104.527 52.3981 45.107 26.629
internal_count=14557 5551 9006 2964 2218 3333 1098 6042 1866 487 1528 273 690 237 495 195 281 206 364 164 148 85
is_linear=0
shrinkage=0.03178


Tree=39
num_leaves=29
num_cat=0
split_feature=5 13 8 13 5 13 5 13 5 13 8 13 8 8 13 8 8 8 13 5 13 8 13 8 5 8 5 5
split_gain=1062.12 1342.16 120.016 86.586 51.5903 32.2594 31.6617 31.4639 14.5592 5.82321 2.80501 2.3141 2.18513 2.17829 1.06086 0.854779 1.85962 0.834686 0.800694 0.544747 0.515812 0.438859 0.283399 0.4269 0.15243 0.12011 0.0833878 0.00379148
threshold=0.52381351590156566 0.35572208464145666 0.027009395882487301 0.78504839539527904 0.058479862287640579 0.016716079786419872 0.82206240296363842 0.097739879041910185 0.11443727836012842 0.93640244007110607 0.28021349012851721 0.70068633556365978 0.31934131681919103 0.24185834825038913 0.73856931924819957 0.0062535761389881381 0.025698079727590088 0.0037755660014227037 0.08901644125580789 0.036695640534162528 0.2339376509189606 0.0046109140384942302 0.59647467732429515 0.0016476024757139387 0.26634630560874945 0.0057208626531064519 0.0085922498255968111 0.38033911585807806
decision_type=2 2 2 2 2 2 2 2 2 2 2 2 2 2 2 2 2 2 2 2 2 2 2 2 2 2 2 2
left_child=1 2 7 4 11 13 -2 -1 10 -5 20 15 18 -4 -13 17 -17 22 24 -9 -7 -19 23 -3 -10 -16 -25 -26
right_child=6 3 5 9 -6 8 -8 19 12 -11 -12 14 -14 -15 25 16 -18 21 -20 -21 -22 -23 -24 26 27 -27 -28 -29
leaf_value=0.02815993857071129 -0.013307398588063631 0 0.019578244099725112 -0.016571468490031303 -0.02279160103977099 0.011449326653927692 -0.027876059326908172 0.015200741722663103 0 -0.026548379341792439 0 -0.0061566015328288533 -0.009531242666573965 0.007407025893432004 0.0021981044129204927 0.0082166397608600793 0 -0.0040488179536674173 -0.0043314160207187915 0 0 0 0 0.0067630047608783894 0.0028576627243781243 0 0 0
leaf_weight=1583.6270413994789 276.58704107999802 14.403194427490233 175.52741879224777 295.377017557621 106.81979370117188 92.358336061239243 1000.525024741888 278.67276495695114 28.207602441310883 573.78120079636574 12.548839896917341 24.202580869197845 69.757795244455338 106.35192933678627 16.895794689655304 80.663922727108002 15.771495670080183 21.902362883090973 34.116718679666519 23.034359514713287 14.250282764434813 25.24419954419136 21.387371152639389 26.64813557267189 12.892645448446276 18.471026122570038 15.568969845771788 11.7039797604084
leaf_count=4568 798 39 484 864 314 255 3135 764 77 1752 35 66 195 288 46 219 43 59 96 63 39 68 58 72 35 51 42 32
internal_value=0 0.00853911 0.0222816 -0.0179779 -0.00469358 0.00860802 -0.0249843 0.0261642 6.62248e-05 -0.0235765 0.00878482 0.00193097 -0.00543802 0.016027 -0.0015227 0.00376587 0.00627618 3.89499e-05 0 0.0145641 0.0105015 -0.000954293 0.00303236 0.00407965 0.000488474 0 0.0054724 0.00226633
internal_weight=0 3700.19 2443.05 1257.14 387.979 557.716 1277.11 1885.33 275.836 869.158 119.157 281.159 156.679 281.879 59.5694 221.59 96.4354 125.154 86.9209 301.707 106.609 47.1466 78.0077 56.6203 52.8042 35.3668 42.2171 24.5966
internal_count=14557 10624 6931 3693 1077 1536 3933 5395 764 2616 329 763 435 772 163 600 262 338 240 827 294 127 211 153 144 97 114 67
is_linear=0
shrinkage=0.03178


Tree=40
num_leaves=24
num_cat=0
split_feature=10 10 10 3 0 10 3 10 3 0 3 0 10 10 0 10 10 0 0 10 3 3 3
split_gain=1680.8 120.213 101.333 24.4973 19.3612 6.26527 3.26091 3.30294 2.88624 4.00263 2.85199 2.4359 2.0041 1.44774 1.0615 1.02097 0.632739 0.554902 0.469452 0.210601 0.094991 0.0596373 0.0462818
threshold=0.26425962150096899 0.83492296934127819 0.063945561647415175 0.76669234037399303 0.38914768397808081 0.013108554761856796 0.0020385888637974863 0.16696349531412127 0.80128598213195812 0.42879864573478704 0.62238717079162609 0.72496765851974498 0.30775551497936254 0.15535191446542743 0.76682621240615856 0.12251141294836999 0.63391003012657177 0.0016680611879564824 0.86239823698997509 0.068146724253892912 0.0041154057253152141 0.0094451336190104502 0.55682575702667247
decision_type=2 2 2 2 2 2 2 2 2 2 2 2 2 2 2 2 2 2 2 2 2 2 2
left_child=2 4 5 6 12 -1 17 10 9 -6 13 -5 21 -8 20 -12 18 -4 -11 -13 -9 -2 -22
right_child=1 -3 3 11 8 -7 7 14 -10 16 15 19 -14 -15 -16 -17 -18 -19 -20 -21 22 -23 -24
leaf_value=-0.022745138457161213 0 0.034304120188312984 0.012965108114950214 0 0 -0.01660899589456066 -0.0062029866640778931 0 0 0.010618874876784375 0.0059231002364383556 0 0.020157481289368784 0 0 0 0 0 0 -0.012555097628351782 0.0070399446112992276 0.0017802090680015563 0
leaf_weight=900.76595233380795 13.120069205760958 867.40487691760063 16.440004825592045 18.365336567163467 19.143448948860168 946.1734217852354 137.4961624443531 12.116716206073759 40.422634288668633 142.35678789019585 24.537577331066132 15.151712089776991 398.41339120268822 12.194306597113608 25.501053526997566 18.950601875782013 19.857523024082184 9.138801693916319 9.1364464461803419 235.09175239503384 55.731704294681549 10.794683933258055 24.042678356170654
leaf_count=3944 42 2337 60 68 59 4001 500 41 143 459 91 63 1166 43 91 70 60 33 32 952 184 34 84
internal_value=0 0.0263502 -0.0160804 -0.00427977 0.0151864 -0.0197987 0.000917429 0 0.00610323 0.00771344 -0.0026192 -0.0113529 0.0194693 -0.00512304 0.00394452 0.00150935 0.00939966 0.0102978 0.0101657 -0.0121477 0.00549844 0 0.00595707
internal_weight=0 1520.65 2451.7 604.758 653.245 1846.94 336.15 310.571 230.917 190.494 193.179 268.609 422.328 149.69 117.392 43.4882 171.351 25.5788 151.493 250.243 91.8911 23.9148 79.7744
internal_count=14557 4332 10225 2280 1995 7945 1197 1104 753 610 704 1083 1242 543 400 161 551 93 491 1015 309 76 268
is_linear=0
shrinkage=0.03178


Tree=41
num_leaves=16
num_cat=0
split_feature=14 14 14 14 7 14 14 7 7 14 14 14 7 7 4
split_gain=2160.77 137.846 105.459 8.09779 7.36976 5.80922 2.59802 1.71365 0.75626 0.143292 0.0677768 0.0533734 0.277631 0.323734 0.059248
threshold=0.27540740370750433 0.88096964359283458 0.045696126297116287 0.010548455175012352 0.76759690046310436 0.1543400436639786 0.70892235636711132 0.052402637898921973 0.0050093503668904313 0.25549924373626715 0.17787496745586398 0.70892235636711132 0.95373260974884044 0.82266360521316539 0.6574099361896516
decision_type=2 2 2 2 2 2 2 2 2 2 2 2 2 2 2
left_child=2 4 3 -1 6 -4 -2 -3 -8 10 -7 12 13 -6 -15
right_child=1 7 5 -5 11 9 8 -9 -10 -11 -12 -13 -14 14 -16
leaf_value=-0.024631509083287224 0.0091965487361062841 0.035008932603985007 -0.006938489948052037 -0.016398594463008408 0 0 0 0.023774911938032273 0.019178009904657092 0 0.0015331925656532127 0 0 0 0.0053803821850046197
leaf_weight=1519.3522049486637 256.0280821621418 956.53089672327042 258.28749261796474 400.95754426717758 10.402153164148329 32.320231914520264 11.012613087892531 229.67624932527542 170.61410173773766 16.336048275232315 82.474538773298264 15.385042279958723 10.147015094757078 12.851914256811144 16.69886514544487
leaf_count=6748 804 2558 969 1653 33 114 33 634 488 57 285 49 35 41 56
internal_value=0 0.0271707 -0.0200207 -0.0230951 0.0122941 -0.00418459 0.0137855 0.0331825 0.018505 0 0.00108468 0 0.000961482 0.00263457 0.00418467
internal_weight=0 1689.35 2309.73 1920.31 503.14 389.418 437.655 1186.21 181.627 131.131 114.795 65.485 50.0999 39.9529 29.5508
internal_count=14557 4731 9826 8401 1539 1425 1325 3192 521 456 399 214 165 130 97
is_linear=0
shrinkage=0.03178


Tree=42
num_leaves=22
num_cat=0
split_feature=6 12 12 0 6 0 6 0 12 6 12 6 12 12 0 6 6 6 12 12 0
split_gain=2555.97 171.546 101.243 24.5786 8.69507 7.10765 4.70473 8.62602 4.1229 3.81102 1.31078 1.77109 1.03811 0.486899 0.468028 0.343272 0.156578 0.10148 0.0852626 0.154788 0.0314248
threshold=0.23544243723154071 0.88177773356437694 0.060967441648244865 0.32741296291351324 0.50813943147659313 0.21926067769527438 0.92375782132148754 0.63453179597854625 0.32886992394924169 0.16349852830171588 0.27761244773864752 0.18750601261854175 0.18426323682069781 0.14592074602842334 0.20240055024623874 0.38417729735374456 0.27075622975826269 0.48761777579784399 0.37914165854454046 0.6534252166748048 0.42879864573478704
decision_type=2 2 2 2 2 2 2 2 2 2 2 2 2 2 2 2 2 2 2 2 2
left_child=2 3 9 8 12 -4 -3 -8 -2 14 11 -7 -5 -6 -1 -10 -14 -18 -12 20 -20
right_child=1 6 5 4 13 10 7 -9 15 -11 18 -13 16 -15 -16 -17 17 -19 19 -21 -22
leaf_value=-0.028147686953337876 -0.0078670601121801735 0.01868760676150125 -0.01221609163349487 0 0 -0.0066785894302005926 0 0.028659723103856193 0 0 0.0018631378480171148 0 0 0.014107662860740227 -0.0055096508335379544 0.003427777756175704 0.0060771770725763091 0 0 0.000547675895109287 -0.0028042785270184249
leaf_weight=1854.0477025806904 64.267750322818756 260.54561632871628 236.85986179113388 34.034334868192673 10.791095674037932 67.177436083555222 6.1561162173748007 1431.8632728755474 23.272775024175644 12.537021964788435 16.59611251950264 17.686444401741028 15.651756525039671 599.96456328034401 27.902810007333755 36.418573051691055 146.73316216468811 16.042546272277832 12.870308071374895 13.778394073247908 14.865540683269499
leaf_count=5842 177 725 684 92 29 186 17 4208 63 36 45 48 42 1637 80 98 393 43 35 37 40
internal_value=0 0.0211025 -0.0247626 0.0098055 0.0118211 -0.00874034 0.0272054 0.0284931 -0.00194392 -0.0278165 -0.00128593 -0.00411211 0.00447207 0.0139557 -0.0279451 0.00161766 0.00540962 0.00573303 0 0 -0.00204095
internal_weight=0 2645.74 2274.32 947.177 823.217 379.834 1698.57 1438.02 123.959 1894.49 142.974 84.8639 212.462 610.756 1881.95 59.6913 178.427 162.776 58.1104 41.5142 27.7358
internal_count=14557 7524 7033 2574 2236 1075 4950 4225 338 5958 391 234 570 1666 5922 161 478 436 157 112 75
is_linear=0
shrinkage=0.03178


Tree=43
num_leaves=20
num_cat=0
split_feature=10 10 10 9 10 14 9 10 14 10 14 10 14 10 10 9 10 9 14
split_gain=1577.57 111.368 99.3229 9.88762 6.46869 5.70745 5.80753 3.1014 2.7746 2.75432 0.53042 0.474995 0.422567 0.200299 0.176134 0.169873 0.10317 0.0839121 0.0861577
threshold=0.26425962150096899 0.83492296934127819 0.063945561647415175 0.034042194485664375 0.013108554761856796 0.88096964359283458 0.38991600275039678 0.13950882852077487 0.023149237968027595 0.17470028251409533 0.0010260253911837938 0.32026955485343939 0.0011772293364629152 0.078705247491598143 0.06605167314410211 0.54168829321861278 0.18973431736230853 0.0019826266216114168 0.92863044142723095
decision_type=2 2 2 2 2 2 2 2 2 2 2 2 2 2 2 2 2 2 2
left_child=2 5 4 7 -1 6 11 13 10 14 -8 -2 -13 -4 -5 -11 -17 -7 -19
right_child=1 -3 3 9 -6 17 8 -9 -10 15 -12 12 -14 -15 -16 16 -18 18 -20
leaf_value=-0.022498685253980116 0 0.033071219802705332 0 0 -0.016301415378567271 0 0 0.0069915672532795525 0 0 0.011194304798162745 0 0.019841648655545774 -0.0017177756316071287 -0.0083044416999545935 0 -0.0017723802210944796 0 0.0024501337176715096
leaf_weight=880.46330578625202 17.485718160867691 869.76450821757317 25.015894845128059 10.677056416869162 929.9516300112009 13.949685931205748 14.407752349972723 66.812449038028717 34.651402175426483 13.878545820713041 206.70849345624447 9.6394390463829023 327.46650740504265 62.475365057587624 318.25868581235409 20.971824660897255 82.629729256033897 11.898314923048018 20.401460468769073
leaf_count=3944 55 2337 93 43 4001 45 50 225 113 48 659 28 941 228 1265 78 300 38 66
internal_value=0 0.0254119 -0.0157797 -0.00407659 -0.0195152 0.014677 0.015519 0.00182498 0.00945404 -0.00656005 0.0107286 0.0190199 0.0195311 -0.000256221 -0.00813954 -0.000276308 -0.00127288 0 0.00144637
internal_weight=0 1526.37 2411.13 600.72 1810.41 656.609 610.359 154.304 255.768 446.416 221.116 354.592 337.106 87.4913 328.936 117.48 103.602 46.2495 32.2998
internal_count=14557 4332 10225 2280 7945 1995 1846 546 822 1734 709 1024 969 321 1308 426 378 149 104
is_linear=0
shrinkage=0.03178


Tree=44
num_leaves=19
num_cat=0
split_feature=2 2 2 2 2 13 13 13 2 2 13 2 10 2 2 2 2 13
split_gain=2044.45 124.322 122.97 11.2894 9.01328 4.5796 4.34718 2.70906 1.36545 1.17938 1.05592 0.784903 1.42579 0.660413 0.213374 0.189425 0.104904 0.845386
threshold=0.24000973254442218 0.047581249848008163 0.89402171969413768 0.011535839643329384 0.59560608863830578 0.78504839539527904 0.011558951810002329 0.81621181964874279 0.27870666980743414 0.5683073401451112 0.0038068894064053897 0.88256770372390758 0.61423844099044811 0.066067691892385497 0.07573446631431581 0.20811089128255847 0.44559830427169805 0.0054523807484656581
decision_type=2 2 2 2 2 2 2 2 2 2 2 2 2 2 2 2 2 2
left_child=1 3 4 -1 6 10 16 8 -8 -10 -6 12 -12 -3 -15 -16 17 -2
right_child=2 13 -4 -5 5 -7 7 -9 9 -11 11 -13 -14 14 15 -17 -18 -19
leaf_value=-0.024320543992539724 0.0056085704240842671 -0.0050940810795989588 0.033152564767532373 -0.015946155391738506 0 0 0 0 0.012991951676902116 0 0.021077065956618748 0 0 0 -0.0013887348531862671 0 -0.0014322190300707016 0
leaf_weight=1483.6358080357313 20.2454774081707 74.670684009790421 1107.6520278155804 452.11141990125179 18.901772320270538 11.114005535840986 20.188175439834595 24.38275283575058 130.20640414953232 14.208743721246718 221.1539480984211 18.864494174718857 11.295050680637358 30.546901509165764 240.67442664504051 33.664246380329132 23.298300117254257 19.656649619340897
leaf_count=6748 69 285 2964 1881 54 35 65 83 402 42 623 52 34 114 855 114 73 64
internal_value=0 -0.019284 0.0269818 -0.0225449 0.0134865 0.0180152 0.00724461 0.00956922 0.0109691 0.0120529 0.0188179 0.0195963 0.0204306 -0.00200378 -0.000483462 -0.0010108 0 0.000926675
internal_weight=0 2315.3 1641.17 1935.75 533.516 281.329 252.187 188.986 164.603 144.415 270.215 251.313 232.449 379.556 304.886 274.339 63.2004 39.9021
internal_count=14557 9997 4560 8629 1596 798 798 592 509 444 763 709 657 1368 1083 969 206 133
is_linear=0
shrinkage=0.03178


Tree=45
num_leaves=24
num_cat=0
split_feature=5 7 5 10 7 5 7 5 10 7 10 10 10 10 5 7 5 10 10 10 7 5 5
split_gain=951.078 1281.89 90.4034 83.3873 45.0182 39.992 31.5023 20.8039 7.32169 5.36424 1.90324 1.84755 1.78515 1.74817 1.60701 1.21441 1.55575 1.07891 0.794086 0.608973 0.420883 0.0414274 0.0182093
threshold=0.58166936039924633 0.4509731531143189 0.080547582358121886 0.71335124969482433 0.095093838870525374 0.064127910882234587 0.028976930305361751 0.82206240296363842 0.37374269962310797 0.73070281744003307 0.61423844099044811 0.83492296934127819 0.53132161498069774 0.15535191446542743 0.026775618083775047 0.1572864428162575 0.39516901969909674 0.021237633191049102 0.61423844099044811 0.074607126414775862 0.039826253429055221 0.52381351590156566 0.22679489850997928
decision_type=2 2 2 2 2 2 2 2 2 2 2 2 2 2 2 2 2 2 2 2 2 2 2
left_child=1 2 4 5 -1 9 19 -2 15 13 14 -5 17 -3 -11 16 20 -6 -15 21 -8 -4 -17
right_child=7 3 6 11 12 -7 8 -9 -10 10 -12 -13 -14 18 -16 22 -18 -19 -20 -21 -22 -23 -24
leaf_value=0.02720878530310571 -0.013343621246186998 0 0.014706017267517801 -0.013500250358609057 0 -0.020820672417444907 0 -0.026981263939349708 -0.014873102718167686 -0.0081989520879983575 0 -0.024959196009577456 0 0.0071839491597853146 0 0 0 0.014288738960921255 0 0 0.0069188398254770786 0 -0.0031086720900309144
leaf_weight=1544.8418535292149 232.2871917784214 21.840944409370422 295.28020823001862 135.73988971114159 12.425939619541166 106.67515036463737 16.164099961519241 964.60913181304932 28.90116885304451 64.350539833307266 37.940769791603088 728.2861747443676 24.4499471783638 124.55950954556465 15.989825636148451 14.365189522504805 20.590332090854645 347.39976581931114 15.530479073524473 11.670890808105467 52.966929048299789 17.710681766271591 24.139446407556534
leaf_count=4588 684 59 811 396 35 318 44 3135 85 175 105 2291 66 334 45 39 57 956 42 32 144 48 68
internal_value=0 0.00792631 0.0214849 -0.0180136 0.0246168 -0.00493234 0.00832709 -0.0246123 -0.00222003 0.000831507 -0.00324571 -0.0235362 0.0133273 0.0050182 -0.00606264 0 0.00308538 0.0139397 0.00638722 0.0139716 0.00568943 0.0142903 -0.00250968
internal_weight=0 3661.82 2410.91 1250.91 1929.12 386.887 481.789 1196.9 157.127 280.212 118.281 864.026 384.276 161.931 80.3404 128.226 89.7214 359.826 140.09 324.662 69.131 312.991 38.5046
internal_count=14557 10738 6973 3765 5645 1078 1328 3819 437 760 325 2687 1057 435 220 352 245 991 376 891 188 859 107
is_linear=0
shrinkage=0.03178


Tree=46
num_leaves=26
num_cat=0
split_feature=10 10 10 12 12 10 12 8 8 12 12 10 8 10 8 10 8 8 10 8 8 8 10 12 12
